{"learner":{"attributes":{"scikit_learn":"{\"_estimator_type\": \"regressor\"}"},"feature_names":[],"feature_types":[],"gradient_booster":{"model":{"cats":{"enc":[],"feature_segments":[],"sorted_idx":[]},"gbtree_model_param":{"num_parallel_tree":"1","num_trees":"200"},"iteration_indptr":[0,1,2,3,4,5,6,7,8,9,10,11,12,13,14,15,16,17,18,19,20,21,22,23,24,25,26,27,28,29,30,31,32,33,34,35,36,37,38,39,40,41,42,43,44,45,46,47,48,49,50,51,52,53,54,55,56,57,58,59,60,61,62,63,64,65,66,67,68,69,70,71,72,73,74,75,76,77,78,79,80,81,82,83,84,85,86,87,88,89,90,91,92,93,94,95,96,97,98,99,100,101,102,103,104,105,106,107,108,109,110,111,112,113,114,115,116,117,118,119,120,121,122,123,124,125,126,127,128,129,130,131,132,133,134,135,136,137,138,139,140,141,142,143,144,145,146,147,148,149,150,151,152,153,154,155,156,157,158,159,160,161,162,163,164,165,166,167,168,169,170,171,172,173,174,175,176,177,178,179,180,181,182,183,184,185,186,187,188,189,190,191,192,193,194,195,196,197,198,199,200],"tree_info":[0,0,0,0,0,0,0,0,0,0,0,0,0,0,0,0,0,0,0,0,0,0,0,0,0,0,0,0,0,0,0,0,0,0,0,0,0,0,0,0,0,0,0,0,0,0,0,0,0,0,0,0,0,0,0,0,0,0,0,0,0,0,0,0,0,0,0,0,0,0,0,0,0,0,0,0,0,0,0,0,0,0,0,0,0,0,0,0,0,0,0,0,0,0,0,0,0,0,0,0,0,0,0,0,0,0,0,0,0,0,0,0,0,0,0,0,0,0,0,0,0,0,0,0,0,0,0,0,0,0,0,0,0,0,0,0,0,0,0,0,0,0,0,0,0,0,0,0,0,0,0,0,0,0,0,0,0,0,0,0,0,0,0,0,0,0,0,0,0,0,0,0,0,0,0,0,0,0,0,0,0,0,0,0,0,0,0,0,0,0,0,0,0,0,0,0,0,0,0,0],"trees":[{"base_weights":[2.0340692E-6,8.024434E1,-9.88573E0,2.0824455E1,9.082752E1,9.990171E0,-1.2280509E1,5.990925E0,3.1527893E1,1.0612675E2,6.104702E1,2.4314138E1,6.4529076E0,-6.7923903E0,-1.2976991E1,1.8252268E0,-1.6607688E-1,4.042257E0,2.0005898E0,7.5778947E0,1.1324451E1,7.0949454E0,4.8691764E0,-4.6542653E-1,2.6547296E0,1.50675E0,2.9574335E-1,1.2487121E-2,-8.6683035E-1,-1.1232017E0,-1.3411324E0],"categories":[],"categories_nodes":[],"categories_segments":[],"categories_sizes":[],"default_left":[0,0,0,0,0,0,0,0,0,0,0,0,0,0,0,0,0,0,0,0,0,0,0,0,0,0,0,0,0,0,0],"id":0,"left_children":[1,3,5,7,9,11,13,15,17,19,21,23,25,27,29,-1,-1,-1,-1,-1,-1,-1,-1,-1,-1,-1,-1,-1,-1,-1,-1],"loss_changes":[1.8515014E6,1.5909462E5,9.903217E4,6.16191E3,9.23905E4,1.1192658E4,7.0023438E3,1.7190737E3,1.5484512E3,2.2091625E4,5.8437188E3,2.969963E3,5.405727E3,2.7390557E3,1.096125E3,0E0,0E0,0E0,0E0,0E0,0E0,0E0,0E0,0E0,0E0,0E0,0E0,0E0,0E0,0E0,0E0],"parents":[2147483647,0,0,1,1,2,2,3,3,4,4,5,5,6,6,7,7,8,8,9,9,10,10,11,11,12,12,13,13,14,14],"right_children":[2,4,6,8,10,12,14,16,18,20,22,24,26,28,30,-1,-1,-1,-1,-1,-1,-1,-1,-1,-1,-1,-1,-1,-1,-1,-1],"split_conditions":[1.4E0,2E0,2.4E0,1E0,1E0,1.6E0,3.4E0,6E-1,8E-1,3.8E0,1.2E0,8E-1,3.2E0,2.4E0,2.4E0,1.8252268E0,-1.6607688E-1,4.042257E0,2.0005898E0,7.5778947E0,1.1324451E1,7.0949454E0,4.8691764E0,-4.6542653E-1,2.6547296E0,1.50675E0,2.9574335E-1,1.2487121E-2,-8.6683035E-1,-1.1232017E0,-1.3411324E0],"split_indices":[0,1,0,1,0,0,0,0,0,1,0,1,1,1,1,0,0,0,0,0,0,0,0,0,0,0,0,0,0,0,0],"split_type":[0,0,0,0,0,0,0,0,0,0,0,0,0,0,0,0,0,0,0,0,0,0,0,0,0,0,0,0,0,0,0],"sum_hessian":[2.332E3,2.55E2,2.077E3,3.9E1,2.16E2,2.23E2,1.854E3,1.7E1,2.2E1,1.41E2,7.5E1,4.3E1,1.8E2,2.1E2,1.644E3,6E0,1.1E1,1.1E1,1.1E1,2.9E1,1.12E2,3.9E1,3.6E1,3E0,4E1,5.1E1,1.29E2,4.5E1,1.65E2,3.33E2,1.311E3],"tree_param":{"num_deleted":"0","num_feature":"2","num_nodes":"31","size_leaf_vector":"1"}},{"base_weights":[1.6822586E-2,7.237056E1,-8.8968315E0,1.8934559E1,8.188701E1,9.008976E0,-1.1054246E1,5.484008E0,2.8637836E1,9.564719E1,5.5099743E1,1.752508E1,3.8716595E0,-6.6024146E0,-1.175641E1,1.6687788E0,-1.508532E-1,3.6717165E0,1.8172022E0,6.845365E0,1.0202028E1,6.403188E0,4.395419E0,-3.1775114E-1,1.9746109E0,1.4288952E0,6.822807E-2,-1.2461438E-2,-7.989921E-1,-1.0332884E0,-1.2155159E0],"categories":[],"categories_nodes":[],"categories_segments":[],"categories_sizes":[],"default_left":[0,0,0,0,0,0,0,0,0,0,0,0,0,0,0,0,0,0,0,0,0,0,0,0,0,0,0,0,0,0,0],"id":1,"left_children":[1,3,5,7,9,11,13,15,17,19,21,23,25,27,29,-1,-1,-1,-1,-1,-1,-1,-1,-1,-1,-1,-1,-1,-1,-1,-1],"loss_changes":[1.5052801E6,1.28631E5,8.037325E4,5.0635273E3,7.47155E4,9.732133E3,5.7209375E3,1.435346E3,1.2775781E3,1.7625875E4,4.751578E3,3.9251523E3,4.6749326E3,2.2909414E3,7.831719E2,0E0,0E0,0E0,0E0,0E0,0E0,0E0,0E0,0E0,0E0,0E0,0E0,0E0,0E0,0E0,0E0],"parents":[2147483647,0,0,1,1,2,2,3,3,4,4,5,5,6,6,7,7,8,8,9,9,10,10,11,11,12,12,13,13,14,14],"right_children":[2,4,6,8,10,12,14,16,18,20,22,24,26,28,30,-1,-1,-1,-1,-1,-1,-1,-1,-1,-1,-1,-1,-1,-1,-1,-1],"split_conditions":[1.4E0,2E0,2.4E0,1E0,1E0,1.8E0,3.6E0,6E-1,8E-1,3.8E0,1.2E0,1E0,2.6E0,2E0,2.6E0,1.6687788E0,-1.508532E-1,3.6717165E0,1.8172022E0,6.845365E0,1.0202028E1,6.403188E0,4.395419E0,-3.1775114E-1,1.9746109E0,1.4288952E0,6.822807E-2,-1.2461438E-2,-7.989921E-1,-1.0332884E0,-1.2155159E0],"split_indices":[0,1,0,1,0,0,0,0,0,1,0,1,1,1,1,0,0,0,0,0,0,0,0,0,0,0,0,0,0,0,0],"split_type":[0,0,0,0,0,0,0,0,0,0,0,0,0,0,0,0,0,0,0,0,0,0,0,0,0,0,0,0,0,0,0],"sum_hessian":[2.332E3,2.55E2,2.077E3,3.9E1,2.16E2,2.23E2,1.854E3,1.7E1,2.2E1,1.41E2,7.5E1,8.3E1,1.4E2,2.54E2,1.6E3,6E0,1.1E1,1.1E1,1.1E1,2.9E1,1.12E2,3.9E1,3.6E1,8E0,7.5E1,3.2E1,1.08E2,4.5E1,2.09E2,3.56E2,1.244E3],"tree_param":{"num_deleted":"0","num_feature":"2","num_nodes":"31","size_leaf_vector":"1"}},{"base_weights":[3.0119058E-2,6.5269646E1,-8.007104E0,2.557351E1,7.575488E1,1.0418949E1,-9.717622E0,8.616286E0,3.941732E1,8.8715004E1,5.0593044E1,2.021115E1,7.1258464E0,-3.0368428E0,-1.03928385E1,1.9628075E0,-7.6756366E-2,2.5986106E0,4.483362E0,7.243524E0,9.384239E0,5.954277E0,3.910237E0,-4.0668803E-1,2.2086782E0,-9.186225E-1,8.659334E-1,5.0093156E-1,-5.2146643E-1,-8.3047837E-1,-1.0765636E0],"categories":[],"categories_nodes":[],"categories_segments":[],"categories_sizes":[],"default_left":[0,0,0,0,0,0,0,0,0,0,0,0,0,0,0,0,0,0,0,0,0,0,0,0,0,0,0,0,0,0,0],"id":2,"left_children":[1,3,5,7,9,11,13,15,17,19,21,23,25,27,29,-1,-1,-1,-1,-1,-1,-1,-1,-1,-1,-1,-1,-1,-1,-1,-1],"loss_changes":[1.2238186E6,1.04615875E5,6.559583E4,1.2571758E4,6.1384E4,5.5636484E3,8.5483125E3,2.7017236E3,1.017375E3,4.220875E3,4.97325E3,2.0934395E3,3.4314712E3,3.110187E3,1.2549219E3,0E0,0E0,0E0,0E0,0E0,0E0,0E0,0E0,0E0,0E0,0E0,0E0,0E0,0E0,0E0,0E0],"parents":[2147483647,0,0,1,1,2,2,3,3,4,4,5,5,6,6,7,7,8,8,9,9,10,10,11,11,12,12,13,13,14,14],"right_children":[2,4,6,8,10,12,14,16,18,20,22,24,26,28,30,-1,-1,-1,-1,-1,-1,-1,-1,-1,-1,-1,-1,-1,-1,-1,-1],"split_conditions":[1.4E0,2.6E0,2.2E0,1.4E0,1E0,1.6E0,3E0,8E-1,1.8E0,4.8E0,1.2E0,8E-1,1E0,2.4E0,4.2E0,1.9628075E0,-7.6756366E-2,2.5986106E0,4.483362E0,7.243524E0,9.384239E0,5.954277E0,3.910237E0,-4.0668803E-1,2.2086782E0,-9.186225E-1,8.659334E-1,5.0093156E-1,-5.2146643E-1,-8.3047837E-1,-1.0765636E0],"split_indices":[0,1,0,1,0,0,0,0,1,1,0,1,1,1,0,0,0,0,0,0,0,0,0,0,0,0,0,0,0,0,0],"split_type":[0,0,0,0,0,0,0,0,0,0,0,0,0,0,0,0,0,0,0,0,0,0,0,0,0,0,0,0,0,0,0],"sum_hessian":[2.332E3,2.55E2,2.077E3,5.4E1,2.01E2,1.76E2,1.901E3,2.5E1,2.9E1,1.31E2,7E1,4.3E1,1.33E2,1.75E2,1.726E3,1.1E1,1.4E1,1E1,1.9E1,3.5E1,9.6E1,3.7E1,3.3E1,3E0,4E1,1.1E1,1.22E2,3.7E1,1.38E2,2.65E2,1.461E3],"tree_param":{"num_deleted":"0","num_feature":"2","num_nodes":"31","size_leaf_vector":"1"}},{"base_weights":[4.222986E-2,5.8881203E1,-7.20648E0,2.3179214E1,6.831055E1,6.133242E0,-9.13442E0,7.827198E0,3.5711655E1,7.9969475E1,4.5672676E1,1.44277E1,2.228421E0,-6.8214283E0,-9.689809E0,1.7828836E0,-6.959251E-2,5.4585347E0,3.0708573E0,6.539293E0,8.45549E0,5.374519E0,3.5307145E0,-2.5966343E-1,1.6253903E0,1.105117E0,-7.072561E-2,-1.6790812E-1,-7.946621E-1,-8.7126017E-1,-9.960374E-1],"categories":[],"categories_nodes":[],"categories_segments":[],"categories_sizes":[],"default_left":[0,0,0,0,0,0,0,0,0,0,0,0,0,0,0,0,0,0,0,0,0,0,0,0,0,0,0,0,0,0,0],"id":3,"left_children":[1,3,5,7,9,11,13,15,17,19,21,23,25,27,29,-1,-1,-1,-1,-1,-1,-1,-1,-1,-1,-1,-1,-1,-1,-1,-1],"loss_changes":[9.9546425E5,8.4598125E4,5.349843E4,1.0302381E4,4.9662E4,8.485991E3,2.26675E3,2.2287822E3,1.1565586E3,3.2935625E3,4.0434062E3,2.653754E3,4.669949E3,2.0407344E3,2.9978125E2,0E0,0E0,0E0,0E0,0E0,0E0,0E0,0E0,0E0,0E0,0E0,0E0,0E0,0E0,0E0,0E0],"parents":[2147483647,0,0,1,1,2,2,3,3,4,4,5,5,6,6,7,7,8,8,9,9,10,10,11,11,12,12,13,13,14,14],"right_children":[2,4,6,8,10,12,14,16,18,20,22,24,26,28,30,-1,-1,-1,-1,-1,-1,-1,-1,-1,-1,-1,-1,-1,-1,-1,-1],"split_conditions":[1.4E0,2.6E0,2.6E0,1.4E0,1E0,1.8E0,4.2E0,8E-1,4E-1,4.8E0,1.2E0,1E0,2.8E0,2E0,2.6E0,1.7828836E0,-6.959251E-2,5.4585347E0,3.0708573E0,6.539293E0,8.45549E0,5.374519E0,3.5307145E0,-2.5966343E-1,1.6253903E0,1.105117E0,-7.072561E-2,-1.6790812E-1,-7.946621E-1,-8.7126017E-1,-9.960374E-1],"split_indices":[0,1,0,1,0,0,0,0,0,1,0,1,1,1,1,0,0,0,0,0,0,0,0,0,0,0,0,0,0,0,0],"split_type":[0,0,0,0,0,0,0,0,0,0,0,0,0,0,0,0,0,0,0,0,0,0,0,0,0,0,0,0,0,0,0],"sum_hessian":[2.332E3,2.55E2,2.077E3,5.4E1,2.01E2,2.62E2,1.815E3,2.5E1,2.9E1,1.31E2,7E1,8.3E1,1.79E2,3.54E2,1.461E3,1.1E1,1.4E1,4E0,2.5E1,3.5E1,9.6E1,3.7E1,3.3E1,8E0,7.5E1,4.4E1,1.35E2,6.4E1,2.9E2,3.24E2,1.137E3],"tree_param":{"num_deleted":"0","num_feature":"2","num_nodes":"31","size_leaf_vector":"1"}},{"base_weights":[5.24568E-2,5.312645E1,-6.486039E0,1.1500616E1,5.9666737E1,8.587673E0,-7.885388E0,2.0477781E1,4.113224E0,6.9483635E1,4.040548E1,-8.760355E0,9.902441E0,-2.4910283E0,-8.430566E0,-8.8935666E-2,2.1961546E0,-1.342135E-1,1.5215677E0,4.916976E0,7.480111E0,4.693193E0,3.247223E0,-3.9882377E-1,-1.2280993E0,2.2927613E0,5.824614E-1,4.2150196E-1,-4.3064156E-1,-6.7964953E-1,-8.722106E-1],"categories":[],"categories_nodes":[],"categories_segments":[],"categories_sizes":[],"default_left":[0,0,0,0,0,0,0,0,0,0,0,0,0,0,0,0,0,0,0,0,0,0,0,0,0,0,0,0,0,0,0],"id":4,"left_children":[1,3,5,7,9,11,13,15,17,19,21,23,25,27,29,-1,-1,-1,-1,-1,-1,-1,-1,-1,-1,-1,-1,-1,-1,-1,-1],"loss_changes":[8.0995175E5,6.90085E4,4.3899758E4,2.303213E3,3.89805E4,4.123876E3,5.5725625E3,5.2679297E2,1.2923466E3,1.19846875E4,2.4627578E3,1.6943213E2,8.630334E3,2.1607886E3,7.634531E2,0E0,0E0,0E0,0E0,0E0,0E0,0E0,0E0,0E0,0E0,0E0,0E0,0E0,0E0,0E0,0E0],"parents":[2147483647,0,0,1,1,2,2,3,3,4,4,5,5,6,6,7,7,8,8,9,9,10,10,11,11,12,12,13,13,14,14],"right_children":[2,4,6,8,10,12,14,16,18,20,22,24,26,28,30,-1,-1,-1,-1,-1,-1,-1,-1,-1,-1,-1,-1,-1,-1,-1,-1],"split_conditions":[1.4E0,1.8E0,2.2E0,8E-1,1E0,8E-1,3E0,4E-1,1.2E0,3.8E0,1.2E0,1.8E0,3.2E0,2.4E0,4.2E0,-8.8935666E-2,2.1961546E0,-1.342135E-1,1.5215677E0,4.916976E0,7.480111E0,4.693193E0,3.247223E0,-3.9882377E-1,-1.2280993E0,2.2927613E0,5.824614E-1,4.2150196E-1,-4.3064156E-1,-6.7964953E-1,-8.722106E-1],"split_indices":[0,1,0,0,0,1,0,1,0,1,0,0,1,1,0,0,0,0,0,0,0,0,0,0,0,0,0,0,0,0,0],"split_type":[0,0,0,0,0,0,0,0,0,0,0,0,0,0,0,0,0,0,0,0,0,0,0,0,0,0,0,0,0,0,0],"sum_hessian":[2.332E3,2.55E2,2.077E3,3.5E1,2.2E2,1.76E2,1.901E3,1.5E1,2E1,1.44E2,7.6E1,1.2E1,1.64E2,1.75E2,1.726E3,1E0,1.4E1,1.4E1,6E0,3.2E1,1.12E2,3.9E1,3.7E1,6E0,6E0,3.8E1,1.26E2,3.7E1,1.38E2,2.65E2,1.461E3],"tree_param":{"num_deleted":"0","num_feature":"2","num_nodes":"31","size_leaf_vector":"1"}},{"base_weights":[5.72927E-2,4.79069E1,-5.8375854E0,1.8789274E1,5.55978E1,6.08367E0,-7.2739863E0,6.0866523E0,2.9171906E1,6.503162E1,3.727581E1,1.5961754E1,3.6487565E0,-3.5681767E0,-7.6385016E0,1.4371809E0,-9.472496E-2,4.628494E0,2.4758942E0,5.311572E0,6.8783584E0,4.3942413E0,2.8728557E0,8.583959E-3,1.7994927E0,9.9977535E-1,1.0810905E-1,1.7512362E-1,-4.737261E-1,-6.343777E-1,-7.9615587E-1],"categories":[],"categories_nodes":[],"categories_segments":[],"categories_sizes":[],"default_left":[0,0,0,0,0,0,0,0,0,0,0,0,0,0,0,0,0,0,0,0,0,0,0,0,0,0,0,0,0,0,0],"id":5,"left_children":[1,3,5,7,9,11,13,15,17,19,21,23,25,27,29,-1,-1,-1,-1,-1,-1,-1,-1,-1,-1,-1,-1,-1,-1,-1,-1],"loss_changes":[6.583433E5,5.6284188E4,3.5627305E4,7.076205E3,3.2490812E4,5.3294697E3,2.4785234E3,1.5288152E3,1.1196094E3,2.2479375E3,2.7832656E3,1.418708E3,2.9398723E3,1.0530615E3,6.5553125E2,0E0,0E0,0E0,0E0,0E0,0E0,0E0,0E0,0E0,0E0,0E0,0E0,0E0,0E0,0E0,0E0],"parents":[2147483647,0,0,1,1,2,2,3,3,4,4,5,5,6,6,7,7,8,8,9,9,10,10,11,11,12,12,13,13,14,14],"right_children":[2,4,6,8,10,12,14,16,18,20,22,24,26,28,30,-1,-1,-1,-1,-1,-1,-1,-1,-1,-1,-1,-1,-1,-1,-1,-1],"split_conditions":[1.4E0,2.6E0,2.4E0,1.4E0,1E0,1.6E0,3.2E0,8E-1,4E-1,4.8E0,1.2E0,1.2E0,3.2E0,2E0,2.4E0,1.4371809E0,-9.472496E-2,4.628494E0,2.4758942E0,5.311572E0,6.8783584E0,4.3942413E0,2.8728557E0,8.583959E-3,1.7994927E0,9.9977535E-1,1.0810905E-1,1.7512362E-1,-4.737261E-1,-6.343777E-1,-7.9615587E-1],"split_indices":[0,1,0,1,0,0,0,0,0,1,0,1,1,1,1,0,0,0,0,0,0,0,0,0,0,0,0,0,0,0,0],"split_type":[0,0,0,0,0,0,0,0,0,0,0,0,0,0,0,0,0,0,0,0,0,0,0,0,0,0,0,0,0,0,0],"sum_hessian":[2.332E3,2.55E2,2.077E3,5.4E1,2.01E2,2.23E2,1.854E3,2.5E1,2.9E1,1.31E2,7E1,4.3E1,1.8E2,1.67E2,1.687E3,1.1E1,1.4E1,4E0,2.5E1,3.5E1,9.6E1,3.7E1,3.3E1,5E0,3.8E1,5.1E1,1.29E2,3E1,1.37E2,3.41E2,1.346E3],"tree_param":{"num_deleted":"0","num_feature":"2","num_nodes":"31","size_leaf_vector":"1"}},{"base_weights":[6.403294E-2,4.322521E1,-5.2532554E0,1.1324857E1,4.8906265E1,7.0767183E0,-6.39792E0,4.384888E-1,1.65502E1,5.7079098E1,3.299247E1,-7.379321E0,8.460792E0,-2.0732875E0,-6.8349423E0,8.370809E-1,-4.8984453E-1,2.3239186E0,9.6497345E-1,4.1192875E0,6.0791554E0,3.8167596E0,2.650605E0,-3.0576032E-1,-1.1318839E0,2.3761559E0,5.224627E-1,3.5412323E-1,-3.5932764E-1,-5.780192E-1,-7.192147E-1],"categories":[],"categories_nodes":[],"categories_segments":[],"categories_sizes":[],"default_left":[0,0,0,0,0,0,0,0,0,0,0,0,0,0,0,0,0,0,0,0,0,0,0,0,0,0,0,0,0,0,0],"id":6,"left_children":[1,3,5,7,9,11,13,15,17,19,21,23,25,27,29,-1,-1,-1,-1,-1,-1,-1,-1,-1,-1,-1,-1,-1,-1,-1,-1],"loss_changes":[5.3565156E5,4.5840406E4,2.9373516E4,2.268144E3,2.634E4,3.6038916E3,3.5805234E3,6.3368365E2,1.02198926E3,5.8705625E3,1.5395E3,2.3779907E2,7.897413E3,1.5147101E3,6.0910156E2,0E0,0E0,0E0,0E0,0E0,0E0,0E0,0E0,0E0,0E0,0E0,0E0,0E0,0E0,0E0,0E0],"parents":[2147483647,0,0,1,1,2,2,3,3,4,4,5,5,6,6,7,7,8,8,9,9,10,10,11,11,12,12,13,13,14,14],"right_children":[2,4,6,8,10,12,14,16,18,20,22,24,26,28,30,-1,-1,-1,-1,-1,-1,-1,-1,-1,-1,-1,-1,-1,-1,-1,-1],"split_conditions":[1.4E0,2E0,2.2E0,8E-1,1E0,1E0,3E0,6E-1,8E-1,3.8E0,1.2E0,1.8E0,2.6E0,2.4E0,5E0,8.370809E-1,-4.8984453E-1,2.3239186E0,9.6497345E-1,4.1192875E0,6.0791554E0,3.8167596E0,2.650605E0,-3.0576032E-1,-1.1318839E0,2.3761559E0,5.224627E-1,3.5412323E-1,-3.5932764E-1,-5.780192E-1,-7.192147E-1],"split_indices":[0,1,0,1,0,1,0,0,0,1,0,0,1,1,0,0,0,0,0,0,0,0,0,0,0,0,0,0,0,0,0],"split_type":[0,0,0,0,0,0,0,0,0,0,0,0,0,0,0,0,0,0,0,0,0,0,0,0,0,0,0,0,0,0,0],"sum_hessian":[2.332E3,2.55E2,2.077E3,3.9E1,2.16E2,1.76E2,1.901E3,1.3E1,2.6E1,1.41E2,7.5E1,1.5E1,1.61E2,1.75E2,1.726E3,5E0,8E0,1.2E1,1.4E1,2.9E1,1.12E2,3.9E1,3.6E1,8E0,7E0,2.7E1,1.34E2,3.7E1,1.38E2,4.41E2,1.285E3],"tree_param":{"num_deleted":"0","num_feature":"2","num_nodes":"31","size_leaf_vector":"1"}},{"base_weights":[6.640047E-2,3.8981995E1,-4.727853E0,1.5274081E1,4.5244137E1,4.1990447E0,-6.0180764E0,4.7603908E0,2.387681E1,5.286981E1,3.0429598E1,1.0433656E1,1.2662317E0,-4.487192E0,-6.3856864E0,1.1543651E0,-9.835767E-2,3.9645786E0,1.9925976E0,5.973843E0,4.6316257E0,3.5947495E0,2.336755E0,-2.1756975E-1,1.2167023E0,8.06561E-1,-7.3405944E-2,-1.29213175E-2,-5.3029704E-1,-5.624904E-1,-6.5973467E-1],"categories":[],"categories_nodes":[],"categories_segments":[],"categories_sizes":[],"default_left":[0,0,0,0,0,0,0,0,0,0,0,0,0,0,0,0,0,0,0,0,0,0,0,0,0,0,0,0,0,0,0],"id":7,"left_children":[1,3,5,7,9,11,13,15,17,19,21,23,25,27,29,-1,-1,-1,-1,-1,-1,-1,-1,-1,-1,-1,-1,-1,-1,-1,-1],"loss_changes":[4.3545494E5,3.7315312E4,2.3959043E4,4.8608916E3,2.1211281E4,4.7957305E3,9.9333594E2,1.0243875E3,1.0790352E3,3.1749688E3,1.9267031E3,1.8624307E3,2.454053E3,1.2613911E3,1.983125E2,0E0,0E0,0E0,0E0,0E0,0E0,0E0,0E0,0E0,0E0,0E0,0E0,0E0,0E0,0E0,0E0],"parents":[2147483647,0,0,1,1,2,2,3,3,4,4,5,5,6,6,7,7,8,8,9,9,10,10,11,11,12,12,13,13,14,14],"right_children":[2,4,6,8,10,12,14,16,18,20,22,24,26,28,30,-1,-1,-1,-1,-1,-1,-1,-1,-1,-1,-1,-1,-1,-1,-1,-1],"split_conditions":[1.4E0,2.6E0,2.6E0,1.4E0,1E0,1.8E0,4.2E0,8E-1,4E-1,6E-1,1.2E0,1.2E0,2.6E0,1.8E0,2.6E0,1.1543651E0,-9.835767E-2,3.9645786E0,1.9925976E0,5.973843E0,4.6316257E0,3.5947495E0,2.336755E0,-2.1756975E-1,1.2167023E0,8.06561E-1,-7.3405944E-2,-1.29213175E-2,-5.3029704E-1,-5.624904E-1,-6.5973467E-1],"split_indices":[0,1,0,1,0,0,0,0,0,0,0,1,1,1,1,0,0,0,0,0,0,0,0,0,0,0,0,0,0,0,0],"split_type":[0,0,0,0,0,0,0,0,0,0,0,0,0,0,0,0,0,0,0,0,0,0,0,0,0,0,0,0,0,0,0],"sum_hessian":[2.332E3,2.55E2,2.077E3,5.4E1,2.01E2,2.62E2,1.815E3,2.5E1,2.9E1,1.31E2,7E1,8.3E1,1.79E2,3.54E2,1.461E3,1.1E1,1.4E1,4E0,2.5E1,6E1,7.1E1,3.7E1,3.3E1,1E1,7.3E1,4E1,1.39E2,5.6E1,2.98E2,3.24E2,1.137E3],"tree_param":{"num_deleted":"0","num_feature":"2","num_nodes":"31","size_leaf_vector":"1"}},{"base_weights":[6.98406E-2,3.517579E1,-4.2550836E0,7.5150075E0,3.952245E1,5.8169856E0,-5.1901526E0,-8.3099985E-1,9.752821E0,4.597229E1,2.6863363E1,-6.9753256E0,7.0445166E0,-1.6960489E0,-5.5432343E0,1.5220007E0,4.6550092E-1,3.2260525E0,4.956978E0,1.4401438E0,2.830095E0,-2.5924203E-1,-1.1034179E0,1.8711884E0,3.681763E-1,2.945656E-1,-2.9528025E-1,-4.345699E-1,-5.782884E-1],"categories":[],"categories_nodes":[],"categories_segments":[],"categories_sizes":[],"default_left":[0,0,0,0,0,0,0,0,0,0,0,0,0,0,0,0,0,0,0,0,0,0,0,0,0,0,0,0,0],"id":8,"left_children":[1,3,5,7,9,11,13,-1,15,17,19,21,23,25,27,-1,-1,-1,-1,-1,-1,-1,-1,-1,-1,-1,-1,-1,-1],"loss_changes":[3.5437038E5,3.0482406E4,1.9600957E4,1.3559286E3,1.6809469E4,2.8285615E3,2.3371055E3,0E0,8.2101245E2,5.5534062E3,9.718906E2,2.560279E2,6.2870933E3,1.0353903E3,4.704961E2,0E0,0E0,0E0,0E0,0E0,0E0,0E0,0E0,0E0,0E0,0E0,0E0,0E0,0E0],"parents":[2147483647,0,0,1,1,2,2,3,3,4,4,5,5,6,6,8,8,9,9,10,10,11,11,12,12,13,13,14,14],"right_children":[2,4,6,8,10,12,14,-1,16,18,20,22,24,26,28,-1,-1,-1,-1,-1,-1,-1,-1,-1,-1,-1,-1,-1,-1],"split_conditions":[1.4E0,1.8E0,2.2E0,4E-1,1E0,1E0,3E0,-8.3099985E-1,8E-1,3.8E0,3E0,1.8E0,3.2E0,2.4E0,2E0,1.5220007E0,4.6550092E-1,3.2260525E0,4.956978E0,1.4401438E0,2.830095E0,-2.5924203E-1,-1.1034179E0,1.8711884E0,3.681763E-1,2.945656E-1,-2.9528025E-1,-4.345699E-1,-5.782884E-1],"split_indices":[0,1,0,1,0,1,0,0,0,1,1,0,1,1,1,0,0,0,0,0,0,0,0,0,0,0,0,0,0],"split_type":[0,0,0,0,0,0,0,0,0,0,0,0,0,0,0,0,0,0,0,0,0,0,0,0,0,0,0,0,0],"sum_hessian":[2.332E3,2.55E2,2.077E3,3.5E1,2.2E2,1.76E2,1.901E3,4E0,3.1E1,1.44E2,7.6E1,1.5E1,1.61E2,1.75E2,1.726E3,1.4E1,1.7E1,3.2E1,1.12E2,9E0,6.7E1,8E0,7E0,3.5E1,1.26E2,3.7E1,1.38E2,2.91E2,1.435E3],"tree_param":{"num_deleted":"0","num_feature":"2","num_nodes":"29","size_leaf_vector":"1"}},{"base_weights":[6.863201E-2,3.1711372E1,-3.8296404E0,6.795633E0,3.5626556E1,3.4582472E0,-4.8829913E0,-7.6451974E0,8.839649E0,4.1431496E1,2.4232487E1,1.2116492E1,1.7108788E0,-3.5882154E0,-5.194046E0,-2.1437016E-1,-8.484646E-1,1.3799474E0,4.21537E-1,3.2228992E0,4.6081486E0,2.8401139E0,1.9206736E0,-6.277785E-1,1.3141882E0,-8.885357E-1,2.6420185E-1,1.1854854E-2,-4.282855E-1,-6.716231E-1,-5.121838E-1],"categories":[],"categories_nodes":[],"categories_segments":[],"categories_sizes":[],"default_left":[0,0,0,0,0,0,0,0,0,0,0,0,0,0,0,0,0,0,0,0,0,0,0,0,0,0,0,0,0,0,0],"id":9,"left_children":[1,3,5,7,9,11,13,15,17,19,21,23,25,27,29,-1,-1,-1,-1,-1,-1,-1,-1,-1,-1,-1,-1,-1,-1,-1,-1],"loss_changes":[2.8790172E5,2.473061E4,1.5969068E4,1.1302034E3,1.3613375E4,3.9582344E3,7.1275E2,4.9025574E0,6.757698E2,4.7195938E3,1.0677031E3,9.123989E2,2.194122E3,9.1458496E2,1.26296875E2,0E0,0E0,0E0,0E0,0E0,0E0,0E0,0E0,0E0,0E0,0E0,0E0,0E0,0E0,0E0,0E0],"parents":[2147483647,0,0,1,1,2,2,3,3,4,4,5,5,6,6,7,7,8,8,9,9,10,10,11,11,12,12,13,13,14,14],"right_children":[2,4,6,8,10,12,14,16,18,20,22,24,26,28,30,-1,-1,-1,-1,-1,-1,-1,-1,-1,-1,-1,-1,-1,-1,-1,-1],"split_conditions":[1.4E0,1.8E0,2.6E0,4E-1,1E0,1.6E0,4.2E0,4E-1,8E-1,5E0,1.2E0,6E-1,1E0,1.8E0,6E-1,-2.1437016E-1,-8.484646E-1,1.3799474E0,4.21537E-1,3.2228992E0,4.6081486E0,2.8401139E0,1.9206736E0,-6.277785E-1,1.3141882E0,-8.885357E-1,2.6420185E-1,1.1854854E-2,-4.282855E-1,-6.716231E-1,-5.121838E-1],"split_indices":[0,1,0,1,0,0,0,0,0,1,0,1,1,1,1,0,0,0,0,0,0,0,0,0,0,0,0,0,0,0,0],"split_type":[0,0,0,0,0,0,0,0,0,0,0,0,0,0,0,0,0,0,0,0,0,0,0,0,0,0,0,0,0,0,0],"sum_hessian":[2.332E3,2.55E2,2.077E3,3.5E1,2.2E2,2.62E2,1.815E3,4E0,3.1E1,1.44E2,7.6E1,4.3E1,2.19E2,3.54E2,1.461E3,1E0,3E0,1.4E1,1.7E1,5.1E1,9.3E1,3.9E1,3.7E1,2E0,4.1E1,1.7E1,2.02E2,5.6E1,2.98E2,6.2E1,1.399E3],"tree_param":{"num_deleted":"0","num_feature":"2","num_nodes":"31","size_leaf_vector":"1"}},{"base_weights":[6.68236E-2,2.8592308E1,-3.4474165E0,1.17841835E1,3.3456383E1,4.8160315E0,-4.2146E0,3.067541E0,1.8103258E1,3.9001854E1,2.2758926E1,1.0920442E1,2.7756577E0,-1.4371849E0,-4.4952083E0,-7.093244E-1,5.2373767E-1,3.6176515E0,1.3739713E0,4.4743476E0,3.3681328E0,2.7868285E0,1.6529363E0,-5.859266E-1,1.1858982E0,8.425649E-1,4.5143593E-2,2.7925524E-1,-2.5831768E-1,-3.5419643E-1,-4.734927E-1],"categories":[],"categories_nodes":[],"categories_segments":[],"categories_sizes":[],"default_left":[0,0,0,0,0,0,0,0,0,0,0,0,0,0,0,0,0,0,0,0,0,0,0,0,0,0,0,0,0,0,0],"id":10,"left_children":[1,3,5,7,9,11,13,15,17,19,21,23,25,27,29,-1,-1,-1,-1,-1,-1,-1,-1,-1,-1,-1,-1,-1,-1,-1,-1],"loss_changes":[2.3397108E5,2.0535281E4,1.3193947E4,3.194253E3,1.0858203E4,2.174273E3,1.4758906E3,6.1037805E2,2.1843037E3,2.4337188E3,1.7673906E3,7.62416E2,1.7558616E3,8.603286E2,3.778672E2,0E0,0E0,0E0,0E0,0E0,0E0,0E0,0E0,0E0,0E0,0E0,0E0,0E0,0E0,0E0,0E0],"parents":[2147483647,0,0,1,1,2,2,3,3,4,4,5,5,6,6,7,7,8,8,9,9,10,10,11,11,12,12,13,13,14,14],"right_children":[2,4,6,8,10,12,14,16,18,20,22,24,26,28,30,-1,-1,-1,-1,-1,-1,-1,-1,-1,-1,-1,-1,-1,-1,-1,-1],"split_conditions":[1.4E0,2.8E0,2.2E0,1.4E0,1E0,1.6E0,3E0,4E-1,4E-1,6E-1,1.2E0,6E-1,3.2E0,2.4E0,2.4E0,-7.093244E-1,5.2373767E-1,3.6176515E0,1.3739713E0,4.4743476E0,3.3681328E0,2.7868285E0,1.6529363E0,-5.859266E-1,1.1858982E0,8.425649E-1,4.5143593E-2,2.7925524E-1,-2.5831768E-1,-3.5419643E-1,-4.734927E-1],"split_indices":[0,1,0,1,0,0,0,1,0,0,0,1,1,1,1,0,0,0,0,0,0,0,0,0,0,0,0,0,0,0,0],"split_type":[0,0,0,0,0,0,0,0,0,0,0,0,0,0,0,0,0,0,0,0,0,0,0,0,0,0,0,0,0,0,0],"sum_hessian":[2.332E3,2.55E2,2.077E3,5.8E1,1.97E2,1.76E2,1.901E3,2.5E1,3.3E1,1.28E2,6.9E1,4.3E1,1.33E2,1.75E2,1.726E3,4E0,2.1E1,5E0,2.8E1,5.8E1,7E1,3.6E1,3.3E1,2E0,4.1E1,3.8E1,9.5E1,3.7E1,1.38E2,3.5E2,1.376E3],"tree_param":{"num_deleted":"0","num_feature":"2","num_nodes":"31","size_leaf_vector":"1"}},{"base_weights":[6.775815E-2,2.5799828E1,-3.1023464E0,1.0687223E1,3.0172775E1,4.342834E0,-3.7935634E0,2.7536478E0,1.6439745E1,3.516246E1,2.054646E1,-6.4921527E0,5.3861485E0,-1.9136254E0,-4.1458106E0,7.776969E-1,-1.4485855E-1,3.3161805E0,1.2413121E0,4.034496E0,3.036063E0,2.5156777E0,1.492504E0,-2.627414E-1,-1.0028466E0,1.7449017E0,2.8443232E-1,-1.0308069E0,-1.5908429E-1,-3.3743867E-1,-4.3636844E-1],"categories":[],"categories_nodes":[],"categories_segments":[],"categories_sizes":[],"default_left":[0,0,0,0,0,0,0,0,0,0,0,0,0,0,0,0,0,0,0,0,0,0,0,0,0,0,0,0,0,0,0],"id":11,"left_children":[1,3,5,7,9,11,13,15,17,19,21,23,25,27,29,-1,-1,-1,-1,-1,-1,-1,-1,-1,-1,-1,-1,-1,-1,-1,-1],"loss_changes":[1.9039067E5,1.6595703E4,1.071035E4,2.647377E3,8.787922E3,2.0358284E3,1.2515781E3,5.60104E2,1.8776963E3,1.9853281E3,1.4386895E3,1.9232184E2,4.917566E3,8.0189453E2,2.5435938E2,0E0,0E0,0E0,0E0,0E0,0E0,0E0,0E0,0E0,0E0,0E0,0E0,0E0,0E0,0E0,0E0],"parents":[2147483647,0,0,1,1,2,2,3,3,4,4,5,5,6,6,7,7,8,8,9,9,10,10,11,11,12,12,13,13,14,14],"right_children":[2,4,6,8,10,12,14,16,18,20,22,24,26,28,30,-1,-1,-1,-1,-1,-1,-1,-1,-1,-1,-1,-1,-1,-1,-1,-1],"split_conditions":[1.4E0,2.8E0,2.2E0,1.4E0,1E0,1E0,3.6E0,8E-1,4E-1,6E-1,1.2E0,1.8E0,2.6E0,6E-1,2.6E0,7.776969E-1,-1.4485855E-1,3.3161805E0,1.2413121E0,4.034496E0,3.036063E0,2.5156777E0,1.492504E0,-2.627414E-1,-1.0028466E0,1.7449017E0,2.8443232E-1,-1.0308069E0,-1.5908429E-1,-3.3743867E-1,-4.3636844E-1],"split_indices":[0,1,0,1,0,1,0,0,0,0,0,0,1,1,1,0,0,0,0,0,0,0,0,0,0,0,0,0,0,0,0],"split_type":[0,0,0,0,0,0,0,0,0,0,0,0,0,0,0,0,0,0,0,0,0,0,0,0,0,0,0,0,0,0,0],"sum_hessian":[2.332E3,2.55E2,2.077E3,5.8E1,1.97E2,1.76E2,1.901E3,2.5E1,3.3E1,1.28E2,6.9E1,1.5E1,1.61E2,3.01E2,1.6E3,1.1E1,1.4E1,5E0,2.8E1,5.8E1,7E1,3.6E1,3.3E1,8E0,7E0,2.7E1,1.34E2,1E1,2.91E2,3.56E2,1.244E3],"tree_param":{"num_deleted":"0","num_feature":"2","num_nodes":"31","size_leaf_vector":"1"}},{"base_weights":[6.7441896E-2,2.3283396E1,-2.7926888E0,1.0250377E1,2.7395752E1,2.6185527E0,-3.5748277E0,2.5026228E0,1.5281725E1,3.0109375E1,1.3244156E1,9.414655E0,1.2474297E0,-2.776808E0,-3.9015567E0,-6.5944093E-1,4.4563746E-1,3.4195054E0,1.0666881E0,2.5189133E0,3.4602425E0,2.2047079E0,8.4582293E-1,-1.0323588E-1,1.0780486E0,-1.1513108E0,1.8462826E-1,1.4771556E-2,-3.3819887E-1,-5.3870016E-1,-3.8308123E-1],"categories":[],"categories_nodes":[],"categories_segments":[],"categories_sizes":[],"default_left":[0,0,0,0,0,0,0,0,0,0,0,0,0,0,0,0,0,0,0,0,0,0,0,0,0,0,0,0,0,0,0],"id":12,"left_children":[1,3,5,7,9,11,13,15,17,19,21,23,25,27,29,-1,-1,-1,-1,-1,-1,-1,-1,-1,-1,-1,-1,-1,-1,-1,-1],"loss_changes":[1.549778E5,1.3439859E4,8.804166E3,2.417599E3,7.0512344E3,2.4389666E3,4.6266016E2,4.9149402E2,2.9519639E3,2.7097031E3,1.2038154E3,6.38959E2,1.7024271E3,9.402976E2,1.1450586E2,0E0,0E0,0E0,0E0,0E0,0E0,0E0,0E0,0E0,0E0,0E0,0E0,0E0,0E0,0E0,0E0],"parents":[2147483647,0,0,1,1,2,2,3,3,4,4,5,5,6,6,7,7,8,8,9,9,10,10,11,11,12,12,13,13,14,14],"right_children":[2,4,6,8,10,12,14,16,18,20,22,24,26,28,30,-1,-1,-1,-1,-1,-1,-1,-1,-1,-1,-1,-1,-1,-1,-1,-1],"split_conditions":[1.4E0,3E0,2.6E0,1.4E0,1.2E0,1.6E0,5E0,4E-1,4E-1,7E0,5.8E0,1.2E0,6E-1,2E0,6E-1,-6.5944093E-1,4.4563746E-1,3.4195054E0,1.0666881E0,2.5189133E0,3.4602425E0,2.2047079E0,8.4582293E-1,-1.0323588E-1,1.0780486E0,-1.1513108E0,1.8462826E-1,1.4771556E-2,-3.3819887E-1,-5.3870016E-1,-3.8308123E-1],"split_indices":[0,1,0,1,0,0,0,1,0,1,1,1,1,1,1,0,0,0,0,0,0,0,0,0,0,0,0,0,0,0,0],"split_type":[0,0,0,0,0,0,0,0,0,0,0,0,0,0,0,0,0,0,0,0,0,0,0,0,0,0,0,0,0,0,0],"sum_hessian":[2.332E3,2.55E2,2.077E3,6.2E1,1.93E2,2.62E2,1.815E3,2.5E1,3.7E1,1.61E2,3.2E1,4.3E1,2.19E2,5.3E2,1.285E3,4E0,2.1E1,6E0,3.1E1,8E1,8.1E1,1E1,2.2E1,5E0,3.8E1,9E0,2.1E2,9.1E1,4.39E2,5.5E1,1.23E3],"tree_param":{"num_deleted":"0","num_feature":"2","num_nodes":"31","size_leaf_vector":"1"}},{"base_weights":[6.5869436E-2,2.1007017E1,-2.514015E0,5.454585E0,2.377702E1,3.5908916E0,-3.0808156E0,1.0861866E1,9.8564404E-1,3.267871E1,1.9755384E1,-5.522183E0,4.4687824E0,-6.3926876E-1,-3.2625358E0,7.070152E-1,1.9306291E0,-4.4344732E-1,1.1702672E0,1.4948045E0,3.3886993E0,1.5640087E0,2.5022933E0,-2.1331652E-1,-8.644555E-1,1.5439141E0,2.1603468E-1,-1.2416054E0,-8.223767E-3,-2.5940314E-1,-3.5121176E-1],"categories":[],"categories_nodes":[],"categories_segments":[],"categories_sizes":[],"default_left":[0,0,0,0,0,0,0,0,0,0,0,0,0,0,0,0,0,0,0,0,0,0,0,0,0,0,0,0,0,0,0],"id":13,"left_children":[1,3,5,7,9,11,13,15,17,19,21,23,25,27,29,-1,-1,-1,-1,-1,-1,-1,-1,-1,-1,-1,-1,-1,-1,-1,-1],"loss_changes":[1.2609487E5,1.0898852E4,7.2014893E3,9.558867E2,7.122883E3,1.4407278E3,8.41791E2,4.3984106E2,1.3879088E3,9.0741406E2,2.903625E3,1.5086813E2,4.0691934E3,8.714636E2,2.8620898E2,0E0,0E0,0E0,0E0,0E0,0E0,0E0,0E0,0E0,0E0,0E0,0E0,0E0,0E0,0E0,0E0],"parents":[2147483647,0,0,1,1,2,2,3,3,4,4,5,5,6,6,7,7,8,8,9,9,10,10,11,11,12,12,13,13,14,14],"right_children":[2,4,6,8,10,12,14,16,18,20,22,24,26,28,30,-1,-1,-1,-1,-1,-1,-1,-1,-1,-1,-1,-1,-1,-1,-1,-1],"split_conditions":[1.4E0,2E0,2.2E0,8E-1,6E-1,1E0,2.8E0,1.6E0,1.2E0,2.6E0,7.2E0,1.8E0,2.6E0,6E-1,5E0,7.070152E-1,1.9306291E0,-4.4344732E-1,1.1702672E0,1.4948045E0,3.3886993E0,1.5640087E0,2.5022933E0,-2.1331652E-1,-8.644555E-1,1.5439141E0,2.1603468E-1,-1.2416054E0,-8.223767E-3,-2.5940314E-1,-3.5121176E-1],"split_indices":[0,1,0,0,0,1,0,1,0,1,1,0,1,1,0,0,0,0,0,0,0,0,0,0,0,0,0,0,0,0,0],"split_type":[0,0,0,0,0,0,0,0,0,0,0,0,0,0,0,0,0,0,0,0,0,0,0,0,0,0,0,0,0,0,0],"sum_hessian":[2.332E3,2.55E2,2.077E3,3.9E1,2.16E2,1.76E2,1.901E3,1.7E1,2.2E1,6.5E1,1.51E2,1.5E1,1.61E2,1.32E2,1.769E3,1.3E1,4E0,1.5E1,7E0,5E0,6E1,8.7E1,6.4E1,8E0,7E0,2.7E1,1.34E2,5E0,1.27E2,4.84E2,1.285E3],"tree_param":{"num_deleted":"0","num_feature":"2","num_nodes":"31","size_leaf_vector":"1"}},{"base_weights":[6.4055495E-2,1.742671E1,-2.487049E0,2.4777042E1,1.2360694E1,9.231582E-1,-2.8988104E0,1.069527E1,2.8150932E1,2.1446445E0,1.4403223E1,5.438006E0,-6.1474854E-1,-1.9126656E0,-3.0989563E0,1.2127327E0,-3.848928E-1,3.0553844E0,2.3428543E0,-4.0187407E-1,8.1739897E-1,1.8248478E0,1.0037485E0,-6.921989E-1,1.1003183E0,1.6290636E-1,-2.0166038E-1,-4.4960323E-1,-5.6095213E-2,-3.3524442E-1,-2.6794735E-1],"categories":[],"categories_nodes":[],"categories_segments":[],"categories_sizes":[],"default_left":[0,0,0,0,0,0,0,0,0,0,0,0,0,0,0,0,0,0,0,0,0,0,0,0,0,0,0,0,0,0,0],"id":14,"left_children":[1,3,5,7,9,11,13,15,17,19,21,23,25,27,29,-1,-1,-1,-1,-1,-1,-1,-1,-1,-1,-1,-1,-1,-1,-1,-1],"loss_changes":[1.0338112E5,1.0827578E4,2.860205E3,5.447672E3,3.7042266E3,1.5308942E3,3.5250098E2,5.673804E2,3.84875E2,1.1848456E3,2.3181484E3,3.9281548E3,5.222926E2,1.0764972E3,1.5136914E2,0E0,0E0,0E0,0E0,0E0,0E0,0E0,0E0,0E0,0E0,0E0,0E0,0E0,0E0,0E0,0E0],"parents":[2147483647,0,0,1,1,2,2,3,3,4,4,5,5,6,6,7,7,8,8,9,9,10,10,11,11,12,12,13,13,14,14],"right_children":[2,4,6,8,10,12,14,16,18,20,22,24,26,28,30,-1,-1,-1,-1,-1,-1,-1,-1,-1,-1,-1,-1,-1,-1,-1,-1],"split_conditions":[1.6E0,8E-1,2.6E0,2.6E0,2E0,2.8E0,2E0,2.4E0,6E-1,1.2E0,1.2E0,1E0,2E0,8E-1,7.6E0,1.2127327E0,-3.848928E-1,3.0553844E0,2.3428543E0,-4.0187407E-1,8.1739897E-1,1.8248478E0,1.0037485E0,-6.921989E-1,1.1003183E0,1.6290636E-1,-2.0166038E-1,-4.4960323E-1,-5.6095213E-2,-3.3524442E-1,-2.6794735E-1],"split_indices":[0,0,0,1,1,1,1,1,0,0,0,1,0,1,1,0,0,0,0,0,0,0,0,0,0,0,0,0,0,0,0],"split_type":[0,0,0,0,0,0,0,0,0,0,0,0,0,0,0,0,0,0,0,0,0,0,0,0,0,0,0,0,0,0,0],"sum_hessian":[2.332E3,2.98E2,2.034E3,1.2E2,1.78E2,2.19E2,1.815E3,2.4E1,9.6E1,3E1,1.48E2,5.5E1,1.64E2,3.08E2,1.507E3,2.2E1,2E0,6E1,3.6E1,1.5E1,1.5E1,7.7E1,7.1E1,1.7E1,3.8E1,6.3E1,1.01E2,1.05E2,2.03E2,9.35E2,5.72E2],"tree_param":{"num_deleted":"0","num_feature":"2","num_nodes":"31","size_leaf_vector":"1"}},{"base_weights":[6.139274E-2,1.5715713E1,-2.238707E0,2.2350792E1,1.114275E1,8.3252114E-1,-2.6095393E0,9.658857E0,2.5391489E1,1.9435846E0,1.2981887E1,5.5161047E0,-4.3736935E-1,-1.9698398E0,-2.8716474E0,1.0967323E0,-3.592331E-1,2.0450647E0,2.7402332E0,-3.641984E-1,7.407679E-1,1.6447029E0,9.047678E-1,-6.2682444E-1,1.2402843E0,1.9944403E-1,-1.9419423E-1,1.09591424E-1,-2.4224687E-1,-4.0714055E-1,-2.814736E-1],"categories":[],"categories_nodes":[],"categories_segments":[],"categories_sizes":[],"default_left":[0,0,0,0,0,0,0,0,0,0,0,0,0,0,0,0,0,0,0,0,0,0,0,0,0,0,0,0,0,0,0],"id":15,"left_children":[1,3,5,7,9,11,13,15,17,19,21,23,25,27,29,-1,-1,-1,-1,-1,-1,-1,-1,-1,-1,-1,-1,-1,-1,-1,-1],"loss_changes":[8.403834E4,8.823195E3,2.3198555E3,4.424414E3,3.0031836E3,1.310893E3,2.98833E2,4.7286646E2,4.0332812E2,9.7310095E2,1.8824512E3,3.8920635E3,6.405104E2,7.3949634E2,7.634863E1,0E0,0E0,0E0,0E0,0E0,0E0,0E0,0E0,0E0,0E0,0E0,0E0,0E0,0E0,0E0,0E0],"parents":[2147483647,0,0,1,1,2,2,3,3,4,4,5,5,6,6,7,7,8,8,9,9,10,10,11,11,12,12,13,13,14,14],"right_children":[2,4,6,8,10,12,14,16,18,20,22,24,26,28,30,-1,-1,-1,-1,-1,-1,-1,-1,-1,-1,-1,-1,-1,-1,-1,-1],"split_conditions":[1.6E0,8E-1,2.6E0,2.6E0,2E0,2.4E0,5E0,2.4E0,5.2E0,1.2E0,1.2E0,1E0,2E0,1.6E0,6E-1,1.0967323E0,-3.592331E-1,2.0450647E0,2.7402332E0,-3.641984E-1,7.407679E-1,1.6447029E0,9.047678E-1,-6.2682444E-1,1.2402843E0,1.9944403E-1,-1.9419423E-1,1.09591424E-1,-2.4224687E-1,-4.0714055E-1,-2.814736E-1],"split_indices":[0,0,0,1,1,1,0,1,1,0,0,1,0,1,1,0,0,0,0,0,0,0,0,0,0,0,0,0,0,0,0],"split_type":[0,0,0,0,0,0,0,0,0,0,0,0,0,0,0,0,0,0,0,0,0,0,0,0,0,0,0,0,0,0,0],"sum_hessian":[2.332E3,2.98E2,2.034E3,1.2E2,1.78E2,2.19E2,1.815E3,2.4E1,9.6E1,3E1,1.48E2,4.6E1,1.73E2,5.3E2,1.285E3,2.2E1,2E0,3.1E1,6.5E1,1.5E1,1.5E1,7.7E1,7.1E1,1.7E1,2.9E1,6.6E1,1.07E2,6.8E1,4.62E2,5.5E1,1.23E3],"tree_param":{"num_deleted":"0","num_feature":"2","num_nodes":"31","size_leaf_vector":"1"}},{"base_weights":[5.87878E-2,1.4172398E1,-2.0149362E0,2.0161356E1,1.0044821E1,7.520817E-1,-2.349038E0,8.72247E0,2.2901672E1,-1.8798922E0,1.1226878E1,4.9775467E0,-3.9360183E-1,-4.2290053E0,-2.2667494E0,4.2691326E-1,1.3191159E0,2.5069761E0,1.870829E0,-7.7687114E-1,5.296452E-2,1.3312974E0,8.840233E-1,-5.676244E-1,1.1203903E0,1.7979732E-1,-1.7495456E-1,-5.9695834E-1,-3.7316665E-1,2.2688007E-2,-2.4763742E-1],"categories":[],"categories_nodes":[],"categories_segments":[],"categories_sizes":[],"default_left":[0,0,0,0,0,0,0,0,0,0,0,0,0,0,0,0,0,0,0,0,0,0,0,0,0,0,0,0,0,0,0],"id":16,"left_children":[1,3,5,7,9,11,13,15,17,19,21,23,25,27,29,-1,-1,-1,-1,-1,-1,-1,-1,-1,-1,-1,-1,-1,-1,-1,-1],"loss_changes":[6.831017E4,7.1887305E3,1.8830547E3,3.593125E3,2.5442344E3,1.0669894E3,2.7134863E2,4.411996E2,4.12875E2,2.4533325E2,6.938496E2,3.1813076E3,5.202132E2,4.2647827E1,9.1115137E2,0E0,0E0,0E0,0E0,0E0,0E0,0E0,0E0,0E0,0E0,0E0,0E0,0E0,0E0,0E0,0E0],"parents":[2147483647,0,0,1,1,2,2,3,3,4,4,5,5,6,6,7,7,8,8,9,9,10,10,11,11,12,12,13,13,14,14],"right_children":[2,4,6,8,10,12,14,16,18,20,22,24,26,28,30,-1,-1,-1,-1,-1,-1,-1,-1,-1,-1,-1,-1,-1,-1,-1,-1],"split_conditions":[1.6E0,8E-1,2.6E0,2.6E0,1.2E0,2.4E0,6E-1,1.6E0,6E-1,4E-1,1.2E0,1E0,2E0,4.4E0,1.4E0,4.2691326E-1,1.3191159E0,2.5069761E0,1.870829E0,-7.7687114E-1,5.296452E-2,1.3312974E0,8.840233E-1,-5.676244E-1,1.1203903E0,1.7979732E-1,-1.7495456E-1,-5.9695834E-1,-3.7316665E-1,2.2688007E-2,-2.4763742E-1],"split_indices":[0,0,0,1,1,1,1,1,0,1,0,1,0,0,1,0,0,0,0,0,0,0,0,0,0,0,0,0,0,0,0],"split_type":[0,0,0,0,0,0,0,0,0,0,0,0,0,0,0,0,0,0,0,0,0,0,0,0,0,0,0,0,0,0,0],"sum_hessian":[2.332E3,2.98E2,2.034E3,1.2E2,1.78E2,2.19E2,1.815E3,2.4E1,9.6E1,1.6E1,1.62E2,4.6E1,1.73E2,7.4E1,1.741E3,1.3E1,1.1E1,6E1,3.6E1,4E0,1.2E1,8.4E1,7.8E1,1.7E1,2.9E1,6.6E1,1.07E2,1.4E1,6E1,1.35E2,1.606E3],"tree_param":{"num_deleted":"0","num_feature":"2","num_nodes":"31","size_leaf_vector":"1"}},{"base_weights":[5.5899497E-2,1.3966575E1,-1.6578583E0,6.8384886E0,1.7109402E1,4.3776913E0,-1.9111557E0,1.2951269E1,3.480067E0,1.9358227E1,5.4448795E0,-3.0059636E0,5.416104E0,-2.6546791E-2,-2.1507096E0,4.1003752E-1,1.9333168E0,-8.4956996E-2,1.4505118E0,1.6019446E0,2.185018E0,1.2166713E0,2.870117E-1,-1.7288935E-1,-5.835186E-1,1.5227209E0,3.461352E-1,-9.996587E-1,4.330244E-2,-1.6131948E-1,-2.3517548E-1],"categories":[],"categories_nodes":[],"categories_segments":[],"categories_sizes":[],"default_left":[0,0,0,0,0,0,0,0,0,0,0,0,0,0,0,0,0,0,0,0,0,0,0,0,0,0,0,0,0,0,0],"id":17,"left_children":[1,3,5,7,9,11,13,15,17,19,21,23,25,27,29,-1,-1,-1,-1,-1,-1,-1,-1,-1,-1,-1,-1,-1,-1,-1,-1],"loss_changes":[5.5640773E4,5.617996E3,3.1851904E3,1.5972727E3,4.537574E3,6.6033203E2,9.006162E2,1.5023208E3,2.54225E3,8.8133984E2,4.8429388E2,2.9655846E1,1.3664858E3,1.0398479E3,1.8748096E2,0E0,0E0,0E0,0E0,0E0,0E0,0E0,0E0,0E0,0E0,0E0,0E0,0E0,0E0,0E0,0E0],"parents":[2147483647,0,0,1,1,2,2,3,3,4,4,5,5,6,6,7,7,8,8,9,9,10,10,11,11,12,12,13,13,14,14],"right_children":[2,4,6,8,10,12,14,16,18,20,22,24,26,28,30,-1,-1,-1,-1,-1,-1,-1,-1,-1,-1,-1,-1,-1,-1,-1,-1],"split_conditions":[1.4E0,3.6E0,1.8E0,6E-1,1.2E0,1.2E0,2.8E0,1.8E0,1.2E0,7E0,5.8E0,1E0,2.8E0,6E-1,5E0,4.1003752E-1,1.9333168E0,-8.4956996E-2,1.4505118E0,1.6019446E0,2.185018E0,1.2166713E0,2.870117E-1,-1.7288935E-1,-5.835186E-1,1.5227209E0,3.461352E-1,-9.996587E-1,4.330244E-2,-1.6131948E-1,-2.3517548E-1],"split_indices":[0,1,0,0,0,1,0,1,0,1,1,1,1,1,0,0,0,0,0,0,0,0,0,0,0,0,0,0,0,0,0],"split_type":[0,0,0,0,0,0,0,0,0,0,0,0,0,0,0,0,0,0,0,0,0,0,0,0,0,0,0,0,0,0,0],"sum_hessian":[2.332E3,2.55E2,2.077E3,7.9E1,1.76E2,8.3E1,1.994E3,2.7E1,5.2E1,1.47E2,2.9E1,1E1,7.3E1,2.25E2,1.769E3,1.2E1,1.5E1,3.8E1,1.4E1,6.6E1,8.1E1,7E0,2.2E1,8E0,2E0,1.1E1,6.2E1,9E0,2.16E2,4.84E2,1.285E3],"tree_param":{"num_deleted":"0","num_feature":"2","num_nodes":"31","size_leaf_vector":"1"}},{"base_weights":[5.4064546E-2,1.1555525E1,-1.6358572E0,1.6573605E1,8.098859E0,5.960015E-1,-1.9053358E0,7.1989083E0,1.8818903E1,-4.121152E0,8.923509E0,4.812058E0,-4.2583236E-1,-1.1266952E0,-2.0636213E0,8.4572977E-1,-4.848376E-1,2.279015E0,1.6790133E0,-7.3687565E-1,-1.5762551E-1,4.8009655E-1,9.9337E-1,-4.727412E-1,1.1231227E0,1.5328874E-1,-1.6506127E-1,-3.307949E-1,1.2224376E-3,-2.2917819E-1,-1.6873176E-1],"categories":[],"categories_nodes":[],"categories_segments":[],"categories_sizes":[],"default_left":[0,0,0,0,0,0,0,0,0,0,0,0,0,0,0,0,0,0,0,0,0,0,0,0,0,0,0,0,0,0,0],"id":18,"left_children":[1,3,5,7,9,11,13,15,17,19,21,23,25,27,29,-1,-1,-1,-1,-1,-1,-1,-1,-1,-1,-1,-1,-1,-1,-1,-1],"loss_changes":[4.5364418E4,5.052176E3,1.2250625E3,2.4114492E3,1.8405996E3,9.498332E2,2.214917E2,4.200083E2,3.9885547E2,8.7562775E1,6.519551E2,2.6862202E3,4.295524E2,7.6768054E2,1.25606445E2,0E0,0E0,0E0,0E0,0E0,0E0,0E0,0E0,0E0,0E0,0E0,0E0,0E0,0E0,0E0,0E0],"parents":[2147483647,0,0,1,1,2,2,3,3,4,4,5,5,6,6,7,7,8,8,9,9,10,10,11,11,12,12,13,13,14,14],"right_children":[2,4,6,8,10,12,14,16,18,20,22,24,26,28,30,-1,-1,-1,-1,-1,-1,-1,-1,-1,-1,-1,-1,-1,-1,-1,-1],"split_conditions":[1.6E0,8E-1,2.6E0,2.6E0,8E-1,2.2E0,2E0,2.4E0,4E-1,4E-1,3E0,1E0,2E0,8E-1,7.6E0,8.4572977E-1,-4.848376E-1,2.279015E0,1.6790133E0,-7.3687565E-1,-1.5762551E-1,4.8009655E-1,9.9337E-1,-4.727412E-1,1.1231227E0,1.5328874E-1,-1.6506127E-1,-3.307949E-1,1.2224376E-3,-2.2917819E-1,-1.6873176E-1],"split_indices":[0,0,0,1,1,1,1,1,0,1,1,1,0,1,1,0,0,0,0,0,0,0,0,0,0,0,0,0,0,0,0],"split_type":[0,0,0,0,0,0,0,0,0,0,0,0,0,0,0,0,0,0,0,0,0,0,0,0,0,0,0,0,0,0,0],"sum_hessian":[2.332E3,2.98E2,2.034E3,1.2E2,1.78E2,2.19E2,1.815E3,2.4E1,9.6E1,1.1E1,1.67E2,4.2E1,1.77E2,3.08E2,1.507E3,2.2E1,2E0,2.9E1,6.7E1,4E0,7E0,3.4E1,1.33E2,1.7E1,2.5E1,6.8E1,1.09E2,1.05E2,2.03E2,9.35E2,5.72E2],"tree_param":{"num_deleted":"0","num_feature":"2","num_nodes":"31","size_leaf_vector":"1"}},{"base_weights":[5.0719004E-2,1.1409618E1,-1.3486693E0,5.6556797E0,1.4137486E1,3.4406295E0,-1.549648E0,7.150812E-2,8.020642E0,1.6153316E1,3.990257E0,-2.6959693E0,4.3063316E0,-3.3234936E-1,-1.8084457E0,-6.41644E-1,1.5427914E-1,2.214069E0,5.3716016E-1,1.3500215E0,1.8414167E0,1.0232924E0,1.6454053E-1,-1.3015471E-1,-5.980579E-1,1.3231419E0,2.5379607E-1,-7.626498E-1,-2.9241585E-3,-8.082426E-2,-1.914178E-1],"categories":[],"categories_nodes":[],"categories_segments":[],"categories_sizes":[],"default_left":[0,0,0,0,0,0,0,0,0,0,0,0,0,0,0,0,0,0,0,0,0,0,0,0,0,0,0,0,0,0,0],"id":19,"left_children":[1,3,5,7,9,11,13,15,17,19,21,23,25,27,29,-1,-1,-1,-1,-1,-1,-1,-1,-1,-1,-1,-1,-1,-1,-1,-1],"loss_changes":[3.7099613E4,3.9382188E3,2.0055042E3,1.1087605E3,3.4742695E3,4.5785706E2,6.278921E2,2.5808505E2,2.087939E3,6.1515625E2,4.223065E2,4.2597466E1,1.1343513E3,7.7580743E2,1.7241748E2,0E0,0E0,0E0,0E0,0E0,0E0,0E0,0E0,0E0,0E0,0E0,0E0,0E0,0E0,0E0,0E0],"parents":[2147483647,0,0,1,1,2,2,3,3,4,4,5,5,6,6,7,7,8,8,9,9,10,10,11,11,12,12,13,13,14,14],"right_children":[2,4,6,8,10,12,14,16,18,20,22,24,26,28,30,-1,-1,-1,-1,-1,-1,-1,-1,-1,-1,-1,-1,-1,-1,-1,-1],"split_conditions":[1.4E0,3.8E0,1.8E0,1.4E0,1.2E0,1.2E0,3.4E0,4E-1,4E-1,7.4E0,5.8E0,1E0,2.8E0,6E-1,1.2E0,-6.41644E-1,1.5427914E-1,2.214069E0,5.3716016E-1,1.3500215E0,1.8414167E0,1.0232924E0,1.6454053E-1,-1.3015471E-1,-5.980579E-1,1.3231419E0,2.5379607E-1,-7.626498E-1,-2.9241585E-3,-8.082426E-2,-1.914178E-1],"split_indices":[0,1,0,1,0,1,0,1,0,1,1,1,1,1,1,0,0,0,0,0,0,0,0,0,0,0,0,0,0,0,0],"split_type":[0,0,0,0,0,0,0,0,0,0,0,0,0,0,0,0,0,0,0,0,0,0,0,0,0,0,0,0,0,0,0],"sum_hessian":[2.332E3,2.55E2,2.077E3,8.3E1,1.72E2,8.3E1,1.994E3,2.5E1,5.8E1,1.43E2,2.9E1,1E1,7.3E1,3.5E2,1.644E3,4E0,2.1E1,8E0,5E1,6.9E1,7.4E1,7E0,2.2E1,8E0,2E0,1.1E1,6.2E1,1.3E1,3.37E2,1.58E2,1.486E3],"tree_param":{"num_deleted":"0","num_feature":"2","num_nodes":"31","size_leaf_vector":"1"}},{"base_weights":[4.841353E-2,1.0294606E1,-1.2138934E0,5.1170616E0,1.2749052E1,3.1066709E0,-1.3952034E0,3.4880402E0,1.2378025E1,1.4560148E1,3.6308239E0,-2.4925737E0,3.897009E0,2.4958855E-2,-1.5757465E0,9.4652885E-1,-7.221557E-2,-3.199781E-1,1.5020747E0,1.2435575E0,1.6951007E0,9.3375427E-1,1.4880162E-1,-1.185854E-1,-5.581875E-1,1.1059666E0,2.0413946E-1,3.9560446E-1,-1.0293265E-1,-2.7746814E-1,-1.500767E-1],"categories":[],"categories_nodes":[],"categories_segments":[],"categories_sizes":[],"default_left":[0,0,0,0,0,0,0,0,0,0,0,0,0,0,0,0,0,0,0,0,0,0,0,0,0,0,0,0,0,0,0],"id":20,"left_children":[1,3,5,7,9,11,13,15,17,19,21,23,25,27,29,-1,-1,-1,-1,-1,-1,-1,-1,-1,-1,-1,-1,-1,-1,-1,-1],"loss_changes":[3.0187143E4,3.1880117E3,1.6321599E3,9.503994E2,2.8040527E3,3.8143848E2,5.115581E2,1.7684124E3,6.655803E2,5.2066016E2,3.5295755E2,3.778608E1,9.609663E2,9.407259E2,1.5495117E2,0E0,0E0,0E0,0E0,0E0,0E0,0E0,0E0,0E0,0E0,0E0,0E0,0E0,0E0,0E0,0E0],"parents":[2147483647,0,0,1,1,2,2,3,3,4,4,5,5,6,6,7,7,8,8,9,9,10,10,11,11,12,12,13,13,14,14],"right_children":[2,4,6,8,10,12,14,16,18,20,22,24,26,28,30,-1,-1,-1,-1,-1,-1,-1,-1,-1,-1,-1,-1,-1,-1,-1,-1],"split_conditions":[1.4E0,3.8E0,1.8E0,1.2E0,1.2E0,1.2E0,2.8E0,6E-1,6E-1,7.8E0,5.8E0,1E0,3.2E0,2.4E0,8E-1,9.4652885E-1,-7.221557E-2,-3.199781E-1,1.5020747E0,1.2435575E0,1.6951007E0,9.3375427E-1,1.4880162E-1,-1.185854E-1,-5.581875E-1,1.1059666E0,2.0413946E-1,3.9560446E-1,-1.0293265E-1,-2.7746814E-1,-1.500767E-1],"split_indices":[0,1,0,0,0,1,0,0,1,1,1,1,1,1,1,0,0,0,0,0,0,0,0,0,0,0,0,0,0,0,0],"split_type":[0,0,0,0,0,0,0,0,0,0,0,0,0,0,0,0,0,0,0,0,0,0,0,0,0,0,0,0,0,0,0],"sum_hessian":[2.332E3,2.55E2,2.077E3,8.3E1,1.72E2,8.3E1,1.994E3,6.9E1,1.4E1,1.43E2,2.9E1,1E1,7.3E1,2.25E2,1.769E3,2.8E1,4.1E1,2E0,1.2E1,7.9E1,6.4E1,7E0,2.2E1,8E0,2E0,1.4E1,5.9E1,4.7E1,1.78E2,1.02E2,1.667E3],"tree_param":{"num_deleted":"0","num_feature":"2","num_nodes":"31","size_leaf_vector":"1"}},{"base_weights":[4.6390228E-2,8.510609E0,-1.1972696E0,1.2422565E1,5.8186684E0,4.470945E-1,-1.3958174E0,1.9028674E0,1.36712055E1,3.0100983E-1,6.927586E0,3.99236E0,-4.1185787E-1,-5.659916E-1,-1.5218277E0,3.0708125E-1,-3.403202E-1,1.7698466E0,1.1663233E0,-3.9617285E-1,4.544935E-1,1.048834E0,5.6141E-1,-4.2138115E-1,9.520003E-1,1.1554139E-1,-1.3912205E-1,-2.6087576E-1,1.0303259E-1,-1.7056607E-1,-1.19706295E-1],"categories":[],"categories_nodes":[],"categories_segments":[],"categories_sizes":[],"default_left":[0,0,0,0,0,0,0,0,0,0,0,0,0,0,0,0,0,0,0,0,0,0,0,0,0,0,0,0,0,0,0],"id":21,"left_children":[1,3,5,7,9,11,13,15,17,19,21,23,25,27,29,-1,-1,-1,-1,-1,-1,-1,-1,-1,-1,-1,-1,-1,-1,-1,-1],"loss_changes":[2.4568766E4,3.076414E3,6.65021E2,1.5633594E3,1.0931489E3,6.7159143E2,1.890315E2,9.7211365E1,6.669336E2,5.788187E2,6.379912E2,1.9906295E3,2.7482455E2,7.885655E2,9.204932E1,0E0,0E0,0E0,0E0,0E0,0E0,0E0,0E0,0E0,0E0,0E0,0E0,0E0,0E0,0E0,0E0],"parents":[2147483647,0,0,1,1,2,2,3,3,4,4,5,5,6,6,7,7,8,8,9,9,10,10,11,11,12,12,13,13,14,14],"right_children":[2,4,6,8,10,12,14,16,18,20,22,24,26,28,30,-1,-1,-1,-1,-1,-1,-1,-1,-1,-1,-1,-1,-1,-1,-1,-1],"split_conditions":[1.6E0,8E-1,2.6E0,1.6E0,2E0,2.2E0,1.6E0,6E-1,4E-1,1.2E0,1E0,1E0,2E0,8E-1,7.6E0,3.0708125E-1,-3.403202E-1,1.7698466E0,1.1663233E0,-3.9617285E-1,4.544935E-1,1.048834E0,5.6141E-1,-4.2138115E-1,9.520003E-1,1.1554139E-1,-1.3912205E-1,-2.6087576E-1,1.0303259E-1,-1.7056607E-1,-1.19706295E-1],"split_indices":[0,0,0,1,1,1,1,0,0,0,0,1,0,1,1,0,0,0,0,0,0,0,0,0,0,0,0,0,0,0,0],"split_type":[0,0,0,0,0,0,0,0,0,0,0,0,0,0,0,0,0,0,0,0,0,0,0,0,0,0,0,0,0,0,0],"sum_hessian":[2.332E3,2.98E2,2.034E3,1.2E2,1.78E2,2.19E2,1.815E3,1.3E1,1.07E2,3E1,1.48E2,4.2E1,1.77E2,2.4E2,1.575E3,1.1E1,2E0,3.3E1,7.4E1,1.5E1,1.5E1,3.8E1,1.1E2,1.7E1,2.5E1,6.8E1,1.09E2,1.05E2,1.35E2,1.003E3,5.72E2],"tree_param":{"num_deleted":"0","num_feature":"2","num_nodes":"31","size_leaf_vector":"1"}},{"base_weights":[4.3736517E-2,8.403689E0,-9.861921E-1,3.842348E0,1.0417834E1,8.838934E-1,-1.2564819E0,2.21536E0,1.074494E1,1.1899478E1,2.7611299E0,3.3643587E0,-2.188476E-1,-9.053033E-1,-1.5272125E0,5.220513E-1,-8.350194E-1,-6.9396824E-1,1.250382E0,9.539844E-1,1.3682357E0,8.029275E-1,8.086824E-2,-6.5444916E-1,5.0149566E-1,1.4005248E-1,-9.625361E-2,1.2993497E-1,-1.22531E-1,-2.3115173E-1,-1.4759992E-1],"categories":[],"categories_nodes":[],"categories_segments":[],"categories_sizes":[],"default_left":[0,0,0,0,0,0,0,0,0,0,0,0,0,0,0,0,0,0,0,0,0,0,0,0,0,0,0,0,0,0,0],"id":22,"left_children":[1,3,5,7,9,11,13,15,17,19,21,23,25,27,29,-1,-1,-1,-1,-1,-1,-1,-1,-1,-1,-1,-1,-1,-1,-1,-1],"loss_changes":[2.009578E4,2.3118945E3,1.0514669E3,8.746311E2,1.975123E3,7.20123E2,1.712732E2,2.139165E3,5.533491E2,4.920996E2,3.0208017E2,1.3576178E3,2.2173651E2,5.610565E2,3.7718994E1,0E0,0E0,0E0,0E0,0E0,0E0,0E0,0E0,0E0,0E0,0E0,0E0,0E0,0E0,0E0,0E0],"parents":[2147483647,0,0,1,1,2,2,3,3,4,4,5,5,6,6,7,7,8,8,9,9,10,10,11,11,12,12,13,13,14,14],"right_children":[2,4,6,8,10,12,14,16,18,20,22,24,26,28,30,-1,-1,-1,-1,-1,-1,-1,-1,-1,-1,-1,-1,-1,-1,-1,-1],"split_conditions":[1.4E0,3.6E0,2.6E0,1.2E0,1.2E0,3.4E0,6.2E0,1E0,4E-1,7E0,5.8E0,6E-1,1.8E0,1.6E0,8E-1,5.220513E-1,-8.350194E-1,-6.9396824E-1,1.250382E0,9.539844E-1,1.3682357E0,8.029275E-1,8.086824E-2,-6.5444916E-1,5.0149566E-1,1.4005248E-1,-9.625361E-2,1.2993497E-1,-1.22531E-1,-2.3115173E-1,-1.4759992E-1],"split_indices":[0,1,0,0,0,1,0,0,1,1,1,1,0,1,1,0,0,0,0,0,0,0,0,0,0,0,0,0,0,0,0],"split_type":[0,0,0,0,0,0,0,0,0,0,0,0,0,0,0,0,0,0,0,0,0,0,0,0,0,0,0,0,0,0,0],"sum_hessian":[2.332E3,2.55E2,2.077E3,7.9E1,1.76E2,2.62E2,1.815E3,6.5E1,1.4E1,1.47E2,2.9E1,8E1,1.82E2,7.92E2,1.023E3,5.1E1,1.4E1,1E0,1.3E1,6.6E1,8.1E1,7E0,2.2E1,1.1E1,6.9E1,5.7E1,1.25E2,1E2,6.92E2,6E1,9.63E2],"tree_param":{"num_deleted":"0","num_feature":"2","num_nodes":"31","size_leaf_vector":"1"}},{"base_weights":[4.0635746E-2,7.5767946E0,-8.8780373E-1,-6.7964834E-1,8.473291E0,2.2518818E0,-1.019556E0,-5.896418E-1,5.3687423E-1,1.4949248E1,7.318464E0,4.4020305E0,7.017405E-1,-3.019437E0,-9.33344E-1,-1.9345334E-2,3.8717118E-1,1.6437197E0,5.2659607E-1,5.2237123E-1,1.0474187E0,-2.4803066E-1,7.2541773E-1,1.0791027E-1,-5.569967E-1,-7.590205E-1,-2.3519425E-1,4.5175247E-2,-1.2179746E-1],"categories":[],"categories_nodes":[],"categories_segments":[],"categories_sizes":[],"default_left":[0,0,0,0,0,0,0,0,0,0,0,0,0,0,0,0,0,0,0,0,0,0,0,0,0,0,0,0,0],"id":23,"left_children":[1,3,5,7,9,11,13,-1,15,17,19,21,23,25,27,-1,-1,-1,-1,-1,-1,-1,-1,-1,-1,-1,-1,-1,-1],"loss_changes":[1.6330418E4,1.9006387E3,8.6188293E2,1.6816989E2,1.6181543E3,2.768858E2,3.4114746E2,0E0,5.4330517E1,4.0332178E2,1.2541553E3,7.050228E2,1.2434579E2,2.3232721E2,7.5512683E2,0E0,0E0,0E0,0E0,0E0,0E0,0E0,0E0,0E0,0E0,0E0,0E0,0E0,0E0],"parents":[2147483647,0,0,1,1,2,2,3,3,4,4,5,5,6,6,8,8,9,9,10,10,11,11,12,12,13,13,14,14],"right_children":[2,4,6,8,10,12,14,-1,16,18,20,22,24,26,28,-1,-1,-1,-1,-1,-1,-1,-1,-1,-1,-1,-1,-1,-1],"split_conditions":[1.4E0,1.4E0,1.8E0,4E-1,4E-1,4.2E0,6E-1,-5.896418E-1,1.2E0,9.4E0,7.2E0,1.2E0,1.08E1,2.8E0,2.4E0,-1.9345334E-2,3.8717118E-1,1.6437197E0,5.2659607E-1,5.2237123E-1,1.0474187E0,-2.4803066E-1,7.2541773E-1,1.0791027E-1,-5.569967E-1,-7.590205E-1,-2.3519425E-1,4.5175247E-2,-1.2179746E-1],"split_indices":[0,1,0,1,0,1,1,0,0,1,1,1,1,0,1,0,0,0,0,0,0,0,0,0,0,0,0,0,0],"split_type":[0,0,0,0,0,0,0,0,0,0,0,0,0,0,0,0,0,0,0,0,0,0,0,0,0,0,0,0,0],"sum_hessian":[2.332E3,2.55E2,2.077E3,2.5E1,2.3E2,8.3E1,1.994E3,4E0,2.1E1,3.3E1,1.97E2,3.4E1,4.9E1,8.1E1,1.913E3,1.8E1,3E0,2.8E1,5E0,1.2E2,7.7E1,1E1,2.4E1,4.7E1,2E0,9E0,7.2E1,3.26E2,1.587E3],"tree_param":{"num_deleted":"0","num_feature":"2","num_nodes":"29","size_leaf_vector":"1"}},{"base_weights":[3.763335E-2,6.269662E0,-8.780493E-1,9.365022E0,4.1422424E0,-4.3295275E-2,-1.1363977E0,1.2067536E0,1.0335861E1,-3.2443533E0,4.6452003E0,2.2206085E0,-6.04772E-1,-4.601474E-1,-1.2077864E0,2.3308872E-1,-3.6920318E-1,1.3518155E0,8.7554103E-1,-5.539298E-1,-1.4044686E-1,2.1718739E-1,5.2565527E-1,-3.0572936E-1,5.582298E-1,-1.1666385E-1,4.4078063E-2,-1.762615E-1,1.5229307E-1,-1.2919895E-1,-7.720015E-2],"categories":[],"categories_nodes":[],"categories_segments":[],"categories_sizes":[],"default_left":[0,0,0,0,0,0,0,0,0,0,0,0,0,0,0,0,0,0,0,0,0,0,0,0,0,0,0,0,0,0,0],"id":24,"left_children":[1,3,5,7,9,11,13,15,17,19,21,23,25,27,29,-1,-1,-1,-1,-1,-1,-1,-1,-1,-1,-1,-1,-1,-1,-1,-1],"loss_changes":[1.3318911E4,1.9301611E3,4.3881348E2,9.458926E2,6.800818E2,6.140272E2,7.4466064E1,8.570216E1,4.2482324E2,4.288945E1,2.4261182E2,1.7203629E3,2.2786165E2,3.901186E2,5.0558105E1,0E0,0E0,0E0,0E0,0E0,0E0,0E0,0E0,0E0,0E0,0E0,0E0,0E0,0E0,0E0,0E0],"parents":[2147483647,0,0,1,1,2,2,3,3,4,4,5,5,6,6,7,7,8,8,9,9,10,10,11,11,12,12,13,13,14,14],"right_children":[2,4,6,8,10,12,14,16,18,20,22,24,26,28,30,-1,-1,-1,-1,-1,-1,-1,-1,-1,-1,-1,-1,-1,-1,-1,-1],"split_conditions":[1.6E0,8E-1,3.8E0,1.6E0,8E-1,2.2E0,1.2E0,6E-1,4E-1,4E-1,3E0,1E0,8E0,8E-1,9.4E0,2.3308872E-1,-3.6920318E-1,1.3518155E0,8.7554103E-1,-5.539298E-1,-1.4044686E-1,2.1718739E-1,5.2565527E-1,-3.0572936E-1,5.582298E-1,-1.1666385E-1,4.4078063E-2,-1.762615E-1,1.5229307E-1,-1.2919895E-1,-7.720015E-2],"split_indices":[0,0,0,1,1,1,1,0,0,1,1,1,1,1,1,0,0,0,0,0,0,0,0,0,0,0,0,0,0,0,0],"split_type":[0,0,0,0,0,0,0,0,0,0,0,0,0,0,0,0,0,0,0,0,0,0,0,0,0,0,0,0,0,0,0],"sum_hessian":[2.332E3,2.98E2,2.034E3,1.2E2,1.78E2,4.81E2,1.553E3,1.3E1,1.07E2,1.1E1,1.67E2,9.5E1,3.86E2,1.49E2,1.404E3,1.1E1,2E0,3.3E1,7.4E1,4E0,7E0,3.4E1,1.33E2,3.7E1,5.8E1,2.51E2,1.35E2,9E1,5.9E1,1.175E3,2.29E2],"tree_param":{"num_deleted":"0","num_feature":"2","num_nodes":"31","size_leaf_vector":"1"}},{"base_weights":[3.4765135E-2,6.178173E0,-7.220911E-1,2.5934017E0,7.763504E0,7.440365E-1,-9.340236E-1,1.0680585E0,9.132017E0,9.033611E0,1.2388583E0,3.0402515E0,-1.7109662E-1,-6.3788426E-1,-1.1624459E0,3.6647776E-1,-8.005104E-1,-3.1759822E-1,1.1269863E0,1.3868848E0,8.342455E-1,6.409692E-1,-6.135559E-2,-2.7356026E-1,5.337076E-1,9.107516E-2,-6.690951E-2,1.2402004E-1,-9.106818E-2,-1.5555303E-1,-1.0883927E-1],"categories":[],"categories_nodes":[],"categories_segments":[],"categories_sizes":[],"default_left":[0,0,0,0,0,0,0,0,0,0,0,0,0,0,0,0,0,0,0,0,0,0,0,0,0,0,0,0,0,0,0],"id":25,"left_children":[1,3,5,7,9,11,13,15,17,19,21,23,25,27,29,-1,-1,-1,-1,-1,-1,-1,-1,-1,-1,-1,-1,-1,-1,-1,-1],"loss_changes":[1.0852157E4,1.4347266E3,6.463712E2,7.88137E2,1.4556074E3,5.5317316E2,1.2210156E2,1.5843269E3,4.3048193E2,3.7890234E2,2.9128845E2,1.0095596E3,1.0243478E2,4.0741248E2,2.8114746E1,0E0,0E0,0E0,0E0,0E0,0E0,0E0,0E0,0E0,0E0,0E0,0E0,0E0,0E0,0E0,0E0],"parents":[2147483647,0,0,1,1,2,2,3,3,4,4,5,5,6,6,7,7,8,8,9,9,10,10,11,11,12,12,13,13,14,14],"right_children":[2,4,6,8,10,12,14,16,18,20,22,24,26,28,30,-1,-1,-1,-1,-1,-1,-1,-1,-1,-1,-1,-1,-1,-1,-1,-1],"split_conditions":[1.4E0,3.6E0,2.6E0,1.2E0,1.2E0,3.2E0,6.2E0,1E0,6E-1,4.4E0,5.8E0,1E0,1.8E0,1.6E0,1.8E0,3.6647776E-1,-8.005104E-1,-3.1759822E-1,1.1269863E0,1.3868848E0,8.342455E-1,6.409692E-1,-6.135559E-2,-2.7356026E-1,5.337076E-1,9.107516E-2,-6.690951E-2,1.2402004E-1,-9.106818E-2,-1.5555303E-1,-1.0883927E-1],"split_indices":[0,1,0,0,0,1,0,0,1,1,1,1,0,1,1,0,0,0,0,0,0,0,0,0,0,0,0,0,0,0,0],"split_type":[0,0,0,0,0,0,0,0,0,0,0,0,0,0,0,0,0,0,0,0,0,0,0,0,0,0,0,0,0,0,0],"sum_hessian":[2.332E3,2.55E2,2.077E3,7.9E1,1.76E2,2.62E2,1.815E3,6.5E1,1.4E1,1.47E2,2.9E1,7.4E1,1.88E2,7.92E2,1.023E3,5.1E1,1.4E1,2E0,1.2E1,1.6E1,1.31E2,7E0,2.2E1,2.1E1,5.3E1,5.9E1,1.29E2,1E2,6.92E2,1.59E2,8.64E2],"tree_param":{"num_deleted":"0","num_feature":"2","num_nodes":"31","size_leaf_vector":"1"}},{"base_weights":[3.2672767E-2,5.111446E0,-7.1356106E-1,7.716519E0,3.3219192E0,-1.0614235E-1,-9.515534E-1,4.6037974E0,9.843734E-1,-2.7479522E0,3.735708E0,-3.7324378E0,1.2909189E-1,-4.7726712E-1,-1.0014193E0,7.3132664E-1,-1.7802449E-1,-4.8911163E-1,-1.0649808E-1,1.6609079E-1,4.2497548E-1,8.690806E-2,-4.190989E-1,5.160907E-1,-4.5216735E-2,5.5966403E-2,-1.6982892E-1,-1.08278506E-1,-5.7978433E-2],"categories":[],"categories_nodes":[],"categories_segments":[],"categories_sizes":[],"default_left":[0,0,0,0,0,0,0,0,0,0,0,0,0,0,0,0,0,0,0,0,0,0,0,0,0,0,0,0,0],"id":26,"left_children":[1,3,5,7,9,11,13,15,-1,17,19,21,23,25,27,-1,-1,-1,-1,-1,-1,-1,-1,-1,-1,-1,-1,-1,-1],"loss_changes":[8.845605E3,1.3682588E3,2.940807E2,7.558745E2,4.598501E2,4.9012036E2,3.4099365E1,8.951852E2,0E0,3.807367E1,1.7212134E2,7.749338E1,1.5817195E3,1.7947281E2,4.4725708E1,0E0,0E0,0E0,0E0,0E0,0E0,0E0,0E0,0E0,0E0,0E0,0E0,0E0,0E0],"parents":[2147483647,0,0,1,1,2,2,3,3,4,4,5,5,6,6,7,7,9,9,10,10,11,11,12,12,13,13,14,14],"right_children":[2,4,6,8,10,12,14,16,-1,18,20,22,24,26,28,-1,-1,-1,-1,-1,-1,-1,-1,-1,-1,-1,-1,-1,-1],"split_conditions":[1.6E0,8E-1,4.2E0,4.8E0,8E-1,8E-1,1.2E0,6E-1,9.843734E-1,4E-1,3E0,1.8E0,1.8E0,8E0,9.4E0,7.3132664E-1,-1.7802449E-1,-4.8911163E-1,-1.0649808E-1,1.6609079E-1,4.2497548E-1,8.690806E-2,-4.190989E-1,5.160907E-1,-4.5216735E-2,5.5966403E-2,-1.6982892E-1,-1.08278506E-1,-5.7978433E-2],"split_indices":[0,0,0,1,1,1,1,0,0,1,1,0,1,0,1,0,0,0,0,0,0,0,0,0,0,0,0,0,0],"split_type":[0,0,0,0,0,0,0,0,0,0,0,0,0,0,0,0,0,0,0,0,0,0,0,0,0,0,0,0,0],"sum_hessian":[2.332E3,2.98E2,2.034E3,1.2E2,1.78E2,5.73E2,1.461E3,5E1,7E1,1.1E1,1.67E2,3.4E1,5.39E2,1.4E2,1.321E3,3.5E1,1.5E1,4E0,7E0,3.4E1,1.33E2,3E0,3.1E1,5.5E1,4.84E2,7.6E1,6.4E1,1.106E3,2.15E2],"tree_param":{"num_deleted":"0","num_feature":"2","num_nodes":"29","size_leaf_vector":"1"}},{"base_weights":[3.0001951E-2,5.0373216E0,-5.868912E-1,-1.0245463E0,5.6978035E0,6.278546E-1,-7.6249206E-1,-4.914733E-1,-9.3842596E-2,1.0600388E1,4.827169E0,2.892902E0,-1.303322E-1,-1.7703376E0,-6.9960827E-1,-1.17699616E-1,1.9488005E-1,1.432081E0,6.4977443E-1,3.0638328E-1,7.5007135E-1,-2.3227906E-1,5.37851E-1,-5.788346E-1,-1.3602007E-3,-3.5928115E-1,-1.16349004E-1,1.8972689E-1,-8.115392E-2],"categories":[],"categories_nodes":[],"categories_segments":[],"categories_sizes":[],"default_left":[0,0,0,0,0,0,0,0,0,0,0,0,0,0,0,0,0,0,0,0,0,0,0,0,0,0,0,0,0],"id":27,"left_children":[1,3,5,7,9,11,13,-1,15,17,19,21,23,25,27,-1,-1,-1,-1,-1,-1,-1,-1,-1,-1,-1,-1,-1,-1],"loss_changes":[7.2095493E3,1.0307979E3,4.4373785E2,9.367468E1,9.348213E2,4.5203458E2,1.1385425E2,0E0,5.0968643E1,4.259082E2,9.104614E2,8.6812805E2,1.3069254E2,1.1305197E2,4.988777E2,0E0,0E0,0E0,0E0,0E0,0E0,0E0,0E0,0E0,0E0,0E0,0E0,0E0,0E0],"parents":[2147483647,0,0,1,1,2,2,3,3,4,4,5,5,6,6,8,8,9,9,10,10,11,11,12,12,13,13,14,14],"right_children":[2,4,6,8,10,12,14,-1,16,18,20,22,24,26,28,-1,-1,-1,-1,-1,-1,-1,-1,-1,-1,-1,-1,-1,-1],"split_conditions":[1.4E0,1.4E0,2.6E0,4E-1,4E-1,2.8E0,8E-1,-4.914733E-1,1E0,6.8E0,7.2E0,1E0,3E0,4.6E0,1.2E0,-1.17699616E-1,1.9488005E-1,1.432081E0,6.4977443E-1,3.0638328E-1,7.5007135E-1,-2.3227906E-1,5.37851E-1,-5.788346E-1,-1.3602007E-3,-3.5928115E-1,-1.16349004E-1,1.8972689E-1,-8.115392E-2],"split_indices":[0,1,0,1,0,1,1,0,0,1,1,1,1,0,1,0,0,0,0,0,0,0,0,0,0,0,0,0,0],"split_type":[0,0,0,0,0,0,0,0,0,0,0,0,0,0,0,0,0,0,0,0,0,0,0,0,0,0,0,0,0],"sum_hessian":[2.332E3,2.55E2,2.077E3,2.5E1,2.3E2,2.62E2,1.815E3,4E0,2.1E1,3.3E1,1.97E2,6.5E1,1.97E2,1.05E2,1.71E3,1.4E1,7E0,1.6E1,1.7E1,1.2E2,7.7E1,2.1E1,4.4E1,3E0,1.94E2,2.5E1,8E1,7E1,1.64E3],"tree_param":{"num_deleted":"0","num_feature":"2","num_nodes":"29","size_leaf_vector":"1"}},{"base_weights":[2.789433E-2,4.1776466E0,-5.818373E-1,6.3882613E0,2.659982E0,-6.895095E-2,-7.828051E-1,1.8871558E0,7.4824815E0,-3.4124073E-1,3.2665453E0,1.6071876E0,-4.7876632E-1,-5.851945E-1,-8.9323026E-1,3.9058664E-1,-6.96886E-1,1.3832554E0,6.6758543E-1,-3.4759852E-1,2.8148314E-1,1.2524356E0,2.7905226E-1,-3.0704695E-1,3.659223E-1,-9.350717E-2,3.801342E-2,7.376752E-2,-7.440446E-2,-1.4119343E-1,-7.955813E-2],"categories":[],"categories_nodes":[],"categories_segments":[],"categories_sizes":[],"default_left":[0,0,0,0,0,0,0,0,0,0,0,0,0,0,0,0,0,0,0,0,0,0,0,0,0,0,0,0,0,0,0],"id":28,"left_children":[1,3,5,7,9,11,13,15,17,19,21,23,25,27,29,-1,-1,-1,-1,-1,-1,-1,-1,-1,-1,-1,-1,-1,-1,-1,-1],"loss_changes":[5.9054697E3,9.8614404E2,2.0970093E2,5.818281E2,3.269718E2,3.950543E2,3.1379944E1,4.7416272E2,4.0450342E2,3.1648218E2,6.216825E2,1.0958907E3,1.8142294E2,1.11291565E2,4.628595E1,0E0,0E0,0E0,0E0,0E0,0E0,0E0,0E0,0E0,0E0,0E0,0E0,0E0,0E0,0E0,0E0],"parents":[2147483647,0,0,1,1,2,2,3,3,4,4,5,5,6,6,7,7,8,8,9,9,10,10,11,11,12,12,13,13,14,14],"right_children":[2,4,6,8,10,12,14,16,18,20,22,24,26,28,30,-1,-1,-1,-1,-1,-1,-1,-1,-1,-1,-1,-1,-1,-1,-1,-1],"split_conditions":[1.6E0,8E-1,4.2E0,2.6E0,2E0,2.2E0,6.6E0,2.2E0,3.4E0,1.2E0,2.4E0,8E-1,8E0,1.4E0,1.8E0,3.9058664E-1,-6.96886E-1,1.3832554E0,6.6758543E-1,-3.4759852E-1,2.8148314E-1,1.2524356E0,2.7905226E-1,-3.0704695E-1,3.659223E-1,-9.350717E-2,3.801342E-2,7.376752E-2,-7.440446E-2,-1.4119343E-1,-7.955813E-2],"split_indices":[0,0,0,1,1,1,0,1,1,0,1,1,1,1,1,0,0,0,0,0,0,0,0,0,0,0,0,0,0,0,0],"split_type":[0,0,0,0,0,0,0,0,0,0,0,0,0,0,0,0,0,0,0,0,0,0,0,0,0,0,0,0,0,0,0],"sum_hessian":[2.332E3,2.98E2,2.034E3,1.2E2,1.78E2,5.73E2,1.461E3,2.4E1,9.6E1,3E1,1.48E2,1.12E2,4.61E2,5.26E2,9.35E2,2E1,4E0,9E0,8.7E1,1.5E1,1.5E1,6E0,1.42E2,3.4E1,7.8E1,3.01E2,1.6E2,5.6E1,4.7E2,1.46E2,7.89E2],"tree_param":{"num_deleted":"0","num_feature":"2","num_nodes":"31","size_leaf_vector":"1"}},{"base_weights":[2.638689E-2,5.2275558E0,-3.7445372E-1,2.057115E0,7.4942956E0,1.6734985E0,-5.518579E-1,3.3261578E0,-8.3523655E0,6.6570625E0,8.31383E0,3.1667671E0,6.279105E-1,-2.0472002E0,-4.875058E-1,1.7222215E-1,1.1815192E0,2.6465112E-1,-1.5480994E0,6.9868696E-1,3.9285412E-1,5.6947255E-1,1.0368266E0,1.443846E-1,9.5027506E-1,-4.4223794E-1,1.1584955E-1,-5.577259E-1,-1.5355866E-1,1.4462778E-1,-6.05084E-2],"categories":[],"categories_nodes":[],"categories_segments":[],"categories_sizes":[],"default_left":[0,0,0,0,0,0,0,0,0,0,0,0,0,0,0,0,0,0,0,0,0,0,0,0,0,0,0,0,0,0,0],"id":29,"left_children":[1,3,5,7,9,11,13,15,17,19,21,23,25,27,29,-1,-1,-1,-1,-1,-1,-1,-1,-1,-1,-1,-1,-1,-1,-1,-1],"loss_changes":[4.8658887E3,1.1847393E3,7.8822766E2,9.656966E2,1.1209961E1,2.6812408E2,1.9097772E2,8.5106726E2,6.6822595E2,2.0245605E1,1.8309058E2,7.613439E2,2.8112296E2,1.3952979E2,4.3606284E2,0E0,0E0,0E0,0E0,0E0,0E0,0E0,0E0,0E0,0E0,0E0,0E0,0E0,0E0,0E0,0E0],"parents":[2147483647,0,0,1,1,2,2,3,3,4,4,5,5,6,6,7,7,8,8,9,9,10,10,11,11,12,12,13,13,14,14],"right_children":[2,4,6,8,10,12,14,16,18,20,22,24,26,28,30,-1,-1,-1,-1,-1,-1,-1,-1,-1,-1,-1,-1,-1,-1,-1,-1],"split_conditions":[1E0,4.8E0,1.8E0,4.4E0,8.2E0,4.4E0,6E-1,3.8E0,6E-1,7.8E0,6E-1,3.6E0,5.2E0,2.8E0,1.2E0,1.7222215E-1,1.1815192E0,2.6465112E-1,-1.5480994E0,6.9868696E-1,3.9285412E-1,5.6947255E-1,1.0368266E0,1.443846E-1,9.5027506E-1,-4.4223794E-1,1.1584955E-1,-5.577259E-1,-1.5355866E-1,1.4462778E-1,-6.05084E-2],"split_indices":[0,1,0,1,1,1,1,1,0,1,0,1,1,0,1,0,0,0,0,0,0,0,0,0,0,0,0,0,0,0,0],"split_type":[0,0,0,0,0,0,0,0,0,0,0,0,0,0,0,0,0,0,0,0,0,0,0,0,0,0,0,0,0,0,0],"sum_hessian":[2.332E3,1.66E2,2.166E3,7E1,9.6E1,1.72E2,1.994E3,6.3E1,7E0,5.2E1,4.4E1,7E1,1.02E2,8.1E1,1.913E3,5.4E1,9E0,3E0,4E0,4.5E1,7E0,2.1E1,2.3E1,5.6E1,1.4E1,9E0,9.3E1,9E0,7.2E1,1.09E2,1.804E3],"tree_param":{"num_deleted":"0","num_feature":"2","num_nodes":"31","size_leaf_vector":"1"}},{"base_weights":[2.4995409E-2,3.739505E0,-4.3262705E-1,1.3126973E0,4.896224E0,4.4056648E-1,-5.848215E-1,-8.600371E-3,7.39124E0,5.922829E0,-1.9468944E-1,2.0981426E0,-2.828257E-1,-1.3357692E0,-5.380994E-1,5.709386E-1,-1.5400502E-1,-2.3248406E-2,1.0184639E0,1.2850344E0,5.195704E-1,4.794286E-1,-1.9215204E-1,-4.2653075E-1,3.172095E-1,-8.56717E-2,4.5714863E-2,-2.795454E-1,-9.047998E-2,1.4771889E-1,-6.2467244E-2],"categories":[],"categories_nodes":[],"categories_segments":[],"categories_sizes":[],"default_left":[0,0,0,0,0,0,0,0,0,0,0,0,0,0,0,0,0,0,0,0,0,0,0,0,0,0,0,0,0,0,0],"id":30,"left_children":[1,3,5,7,9,11,13,15,17,19,21,23,25,27,29,-1,-1,-1,-1,-1,-1,-1,-1,-1,-1,-1,-1,-1,-1,-1,-1],"loss_changes":[3.9673516E3,7.121987E2,2.7641394E2,6.7471497E2,9.053135E2,3.7110837E2,6.138318E1,6.2176935E2,3.218092E2,6.585864E2,2.6766583E2,6.5592993E2,9.211925E1,6.226584E1,2.9193796E2,0E0,0E0,0E0,0E0,0E0,0E0,0E0,0E0,0E0,0E0,0E0,0E0,0E0,0E0,0E0,0E0],"parents":[2147483647,0,0,1,1,2,2,3,3,4,4,5,5,6,6,7,7,8,8,9,9,10,10,11,11,12,12,13,13,14,14],"right_children":[2,4,6,8,10,12,14,16,18,20,22,24,26,28,30,-1,-1,-1,-1,-1,-1,-1,-1,-1,-1,-1,-1,-1,-1,-1,-1],"split_conditions":[1.4E0,3.8E0,2.8E0,1.2E0,1.2E0,3.4E0,8E-1,4E-1,1.4E0,4.4E0,5.8E0,6E-1,7.8E0,4.6E0,1.2E0,5.709386E-1,-1.5400502E-1,-2.3248406E-2,1.0184639E0,1.2850344E0,5.195704E-1,4.794286E-1,-1.9215204E-1,-4.2653075E-1,3.172095E-1,-8.56717E-2,4.5714863E-2,-2.795454E-1,-9.047998E-2,1.4771889E-1,-6.2467244E-2],"split_indices":[0,1,0,0,0,1,1,0,1,1,1,1,1,0,1,0,0,0,0,0,0,0,0,0,0,0,0,0,0,0,0],"split_type":[0,0,0,0,0,0,0,0,0,0,0,0,0,0,0,0,0,0,0,0,0,0,0,0,0,0,0,0,0,0,0],"sum_hessian":[2.332E3,2.55E2,2.077E3,8.3E1,1.72E2,3.08E2,1.769E3,6.9E1,1.4E1,1.43E2,2.9E1,9.3E1,2.15E2,1.02E2,1.667E3,1.4E1,5.5E1,4E0,1E1,1.2E1,1.31E2,7E0,2.2E1,1.3E1,8E1,1.21E2,9.4E1,2.2E1,8E1,6.8E1,1.599E3],"tree_param":{"num_deleted":"0","num_feature":"2","num_nodes":"31","size_leaf_vector":"1"}},{"base_weights":[2.3811707E-2,4.32069E0,-3.073385E-1,1.6124588E0,6.258461E0,1.3422735E0,-4.5023352E-1,2.805345E0,-8.132189E0,5.986966E0,9.378304E0,2.6259115E0,4.4440374E-1,-1.6926141E0,-3.9677197E-1,1.9751488E-1,1.4764503E0,2.058342E-1,-1.4658176E0,6.172988E-1,-1.5893249E-1,3.516266E-1,1.1430256E0,1.0732788E-1,8.350856E-1,-1.1536951E-1,2.0339563E-1,-4.6914282E-1,-1.2586312E-1,1.2183531E-1,-4.949808E-2],"categories":[],"categories_nodes":[],"categories_segments":[],"categories_sizes":[],"default_left":[0,0,0,0,0,0,0,0,0,0,0,0,0,0,0,0,0,0,0,0,0,0,0,0,0,0,0,0,0,0,0],"id":31,"left_children":[1,3,5,7,9,11,13,15,17,19,21,23,25,27,29,-1,-1,-1,-1,-1,-1,-1,-1,-1,-1,-1,-1,-1,-1,-1,-1],"loss_changes":[3.3209824E3,8.66313E2,5.114124E2,8.4813574E2,2.6013428E1,1.9822241E2,1.3183554E2,6.062588E2,5.6219775E2,1.3947095E2,3.197998E1,6.221376E2,2.6399356E2,1.0081282E2,3.042009E2,0E0,0E0,0E0,0E0,0E0,0E0,0E0,0E0,0E0,0E0,0E0,0E0,0E0,0E0,0E0,0E0],"parents":[2147483647,0,0,1,1,2,2,3,3,4,4,5,5,6,6,7,7,8,8,9,9,10,10,11,11,12,12,13,13,14,14],"right_children":[2,4,6,8,10,12,14,16,18,20,22,24,26,28,30,-1,-1,-1,-1,-1,-1,-1,-1,-1,-1,-1,-1,-1,-1,-1,-1],"split_conditions":[1E0,4.8E0,1.8E0,4.4E0,1.06E1,4.4E0,6E-1,4.2E0,6E-1,1.04E1,6E-1,3.6E0,7.8E0,2.8E0,1.2E0,1.9751488E-1,1.4764503E0,2.058342E-1,-1.4658176E0,6.172988E-1,-1.5893249E-1,3.516266E-1,1.1430256E0,1.0732788E-1,8.350856E-1,-1.1536951E-1,2.0339563E-1,-4.6914282E-1,-1.2586312E-1,1.2183531E-1,-4.949808E-2],"split_indices":[0,1,0,1,1,1,1,1,0,1,0,1,1,0,1,0,0,0,0,0,0,0,0,0,0,0,0,0,0,0,0],"split_type":[0,0,0,0,0,0,0,0,0,0,0,0,0,0,0,0,0,0,0,0,0,0,0,0,0,0,0,0,0,0,0],"sum_hessian":[2.332E3,1.66E2,2.166E3,7E1,9.6E1,1.72E2,1.994E3,6.3E1,7E0,9.1E1,5E0,7E1,1.02E2,8.1E1,1.913E3,6E1,3E0,3E0,4E0,8.9E1,2E0,2E0,3E0,5.6E1,1.4E1,5.1E1,5.1E1,9E0,7.2E1,1.09E2,1.804E3],"tree_param":{"num_deleted":"0","num_feature":"2","num_nodes":"31","size_leaf_vector":"1"}},{"base_weights":[2.2662705E-2,3.9027972E0,-2.7637058E-1,1.4570429E0,5.6527534E0,8.1207633E-1,-4.5987868E-1,4.6578197E0,-1.784207E0,5.393256E0,8.689586E0,1.9639099E0,4.5984965E-2,-2.3995325E-1,-6.38119E-1,1.1775399E-2,9.725084E-1,9.987957E-3,-1.348552E0,5.562552E-1,-1.483368E-1,3.2818502E-1,1.057299E0,-9.758257E-2,3.1639808E-1,-1.0743072E-1,1.2139672E-1,1.3443811E-1,-4.656471E-2,-1.1225277E-1,-5.477797E-2],"categories":[],"categories_nodes":[],"categories_segments":[],"categories_sizes":[],"default_left":[0,0,0,0,0,0,0,0,0,0,0,0,0,0,0,0,0,0,0,0,0,0,0,0,0,0,0,0,0,0,0],"id":32,"left_children":[1,3,5,7,9,11,13,15,17,19,21,23,25,27,29,-1,-1,-1,-1,-1,-1,-1,-1,-1,-1,-1,-1,-1,-1,-1,-1],"loss_changes":[2.7080337E3,7.0651733E2,4.3320752E2,7.449011E2,2.957544E1,2.7610394E2,7.256207E1,8.2706055E2,7.950132E2,1.153562E2,2.6410767E1,4.4407388E2,2.4860715E2,2.98128E2,4.4196503E1,0E0,0E0,0E0,0E0,0E0,0E0,0E0,0E0,0E0,0E0,0E0,0E0,0E0,0E0,0E0,0E0],"parents":[2147483647,0,0,1,1,2,2,3,3,4,4,5,5,6,6,7,7,8,8,9,9,10,10,11,11,12,12,13,13,14,14],"right_children":[2,4,6,8,10,12,14,16,18,20,22,24,26,28,30,-1,-1,-1,-1,-1,-1,-1,-1,-1,-1,-1,-1,-1,-1,-1,-1],"split_conditions":[1E0,4.8E0,2.4E0,6E-1,1.06E1,4.4E0,6.2E0,2.6E0,4.4E0,1.04E1,6E-1,1.4E0,7.8E0,1.6E0,1.8E0,1.1775399E-2,9.725084E-1,9.987957E-3,-1.348552E0,5.562552E-1,-1.483368E-1,3.2818502E-1,1.057299E0,-9.758257E-2,3.1639808E-1,-1.0743072E-1,1.2139672E-1,1.3443811E-1,-4.656471E-2,-1.1225277E-1,-5.477797E-2],"split_indices":[0,1,0,0,1,1,0,1,1,1,0,1,1,1,1,0,0,0,0,0,0,0,0,0,0,0,0,0,0,0,0],"split_type":[0,0,0,0,0,0,0,0,0,0,0,0,0,0,0,0,0,0,0,0,0,0,0,0,0,0,0,0,0,0,0],"sum_hessian":[2.332E3,1.66E2,2.166E3,7E1,9.6E1,3.12E2,1.854E3,3.5E1,3.5E1,9.1E1,5E0,1.24E2,1.88E2,8.31E2,1.023E3,1.9E1,1.6E1,3.1E1,4E0,8.9E1,2E0,2E0,3E0,3.6E1,8.8E1,9.6E1,9.2E1,1.03E2,7.28E2,1.59E2,8.64E2],"tree_param":{"num_deleted":"0","num_feature":"2","num_nodes":"31","size_leaf_vector":"1"}},{"base_weights":[2.107854E-2,2.5696986E0,-3.5339737E-1,-2.82184E0,2.884492E0,-4.4004545E-2,-5.3356165E-1,-5.2754176E-1,-1.359898E0,6.2551093E0,2.3679035E0,1.3137168E0,-3.6051098E-1,-8.520833E-1,-4.7550446E-1,-2.9576156E-1,7.3075555E-2,7.382135E-1,-7.982127E-2,1.5107612E-1,3.899436E-1,-2.003053E-1,2.823318E-1,-7.86215E-2,3.7988342E-2,-2.5730336E-2,-1.360269E-1,-5.822423E-2,-1.1265802E-2],"categories":[],"categories_nodes":[],"categories_segments":[],"categories_sizes":[],"default_left":[0,0,0,0,0,0,0,0,0,0,0,0,0,0,0,0,0,0,0,0,0,0,0,0,0,0,0,0,0],"id":33,"left_children":[1,3,5,7,9,11,13,-1,15,17,19,21,23,25,27,-1,-1,-1,-1,-1,-1,-1,-1,-1,-1,-1,-1,-1,-1],"loss_changes":[2.2275159E3,5.1560803E2,1.1341052E2,5.380475E1,4.7795435E2,3.2276926E2,2.337613E1,0E0,4.2244576E1,3.0001575E2,3.1835596E2,7.1664923E2,1.9224869E2,5.9194946E1,4.214952E1,0E0,0E0,0E0,0E0,0E0,0E0,0E0,0E0,0E0,0E0,0E0,0E0,0E0,0E0],"parents":[2147483647,0,0,1,1,2,2,3,3,4,4,5,5,6,6,8,8,9,9,10,10,11,11,12,12,13,13,14,14],"right_children":[2,4,6,8,10,12,14,-1,16,18,20,22,24,26,28,-1,-1,-1,-1,-1,-1,-1,-1,-1,-1,-1,-1,-1,-1],"split_conditions":[1.6E0,8E-1,5E0,4E-1,4E-1,2.2E0,1.8E0,-5.2754176E-1,1E0,9.4E0,7.4E0,8E-1,7.8E0,7.8E0,9.6E0,-2.9576156E-1,7.3075555E-2,7.382135E-1,-7.982127E-2,1.5107612E-1,3.899436E-1,-2.003053E-1,2.823318E-1,-7.86215E-2,3.7988342E-2,-2.5730336E-2,-1.360269E-1,-5.822423E-2,-1.1265802E-2],"split_indices":[0,1,0,1,0,1,1,0,0,1,1,1,1,0,0,0,0,0,0,0,0,0,0,0,0,0,0,0,0],"split_type":[0,0,0,0,0,0,0,0,0,0,0,0,0,0,0,0,0,0,0,0,0,0,0,0,0,0,0,0,0],"sum_hessian":[2.332E3,2.98E2,2.034E3,1.6E1,2.82E2,7.49E2,1.285E3,5E0,1.1E1,3.6E1,2.46E2,1.41E2,6.08E2,1.96E2,1.089E3,6E0,5E0,3.1E1,5E0,1.59E2,8.7E1,4.4E1,9.7E1,3.86E2,2.22E2,9.1E1,1.05E2,8.41E2,2.48E2],"tree_param":{"num_deleted":"0","num_feature":"2","num_nodes":"29","size_leaf_vector":"1"}},{"base_weights":[1.9081557E-2,3.2301311E0,-2.28387E-1,1.0985034E0,4.7570944E0,6.4491767E-1,-3.7561932E-1,2.1402106E0,-7.372469E0,4.511724E0,7.726593E0,1.713492E0,-6.522366E-2,-1.1318818E0,-3.2867885E-1,1.39902E-1,1.2908318E0,9.144898E-2,-1.2527542E0,4.666799E-1,-1.6444397E-1,2.8031006E-1,9.487564E-1,-8.802756E-2,2.7725473E-1,2.3124798E-1,-4.9310055E-2,-2.574712E-1,-6.1915196E-2,1.6889675E-1,-4.151081E-2],"categories":[],"categories_nodes":[],"categories_segments":[],"categories_sizes":[],"default_left":[0,0,0,0,0,0,0,0,0,0,0,0,0,0,0,0,0,0,0,0,0,0,0,0,0,0,0,0,0,0,0],"id":34,"left_children":[1,3,5,7,9,11,13,15,17,19,21,23,25,27,29,-1,-1,-1,-1,-1,-1,-1,-1,-1,-1,-1,-1,-1,-1,-1,-1],"loss_changes":[1.8546184E3,5.3834546E2,2.7887228E2,6.423021E2,3.581665E1,2.3762828E2,6.547925E1,4.9273923E2,3.532153E2,9.5503784E1,2.5426147E1,3.458085E2,1.9342213E2,7.830235E1,3.0552374E2,0E0,0E0,0E0,0E0,0E0,0E0,0E0,0E0,0E0,0E0,0E0,0E0,0E0,0E0,0E0,0E0],"parents":[2147483647,0,0,1,1,2,2,3,3,4,4,5,5,6,6,7,7,8,8,9,9,10,10,11,11,12,12,13,13,14,14],"right_children":[2,4,6,8,10,12,14,16,18,20,22,24,26,28,30,-1,-1,-1,-1,-1,-1,-1,-1,-1,-1,-1,-1,-1,-1,-1,-1],"split_conditions":[1E0,4.8E0,2.4E0,4.4E0,1.06E1,4.4E0,8E-1,4.2E0,6E-1,1.04E1,6E-1,1.4E0,1.2E0,4.6E0,1.2E0,1.39902E-1,1.2908318E0,9.144898E-2,-1.2527542E0,4.666799E-1,-1.6444397E-1,2.8031006E-1,9.487564E-1,-8.802756E-2,2.7725473E-1,2.3124798E-1,-4.9310055E-2,-2.574712E-1,-6.1915196E-2,1.6889675E-1,-4.151081E-2],"split_indices":[0,1,0,1,1,1,1,1,0,1,0,1,0,0,1,0,0,0,0,0,0,0,0,0,0,0,0,0,0,0,0],"split_type":[0,0,0,0,0,0,0,0,0,0,0,0,0,0,0,0,0,0,0,0,0,0,0,0,0,0,0,0,0,0,0],"sum_hessian":[2.332E3,1.66E2,2.166E3,7E1,9.6E1,3.12E2,1.854E3,6.3E1,7E0,9.1E1,5E0,1.24E2,1.88E2,1.07E2,1.747E3,6E1,3E0,3E0,4E0,8.9E1,2E0,2E0,3E0,3.6E1,8.8E1,2.8E1,1.6E2,2.7E1,8E1,7.1E1,1.676E3],"tree_param":{"num_deleted":"0","num_feature":"2","num_nodes":"31","size_leaf_vector":"1"}},{"base_weights":[1.8022686E-2,2.9179037E0,-2.0546515E-1,-2.2588246E0,3.4813902E0,4.7965452E-1,-3.5940424E-1,-9.5400375E-1,-3.9865682E0,5.8769326E0,2.761646E0,-4.5953045E0,6.0888314E-1,-4.0286615E-1,2.060351E-1,-3.8337055E-1,3.2683793E-1,-1.6045666E-1,-6.6277146E-1,1.0157272E0,2.7435192E-1,-3.9232638E-2,4.5751548E-1,-7.122622E-2,-4.9476138E-1,2.996819E-1,1.0270761E-2,-2.533642E-2,-5.3590488E-2,6.340426E-2,-3.6579367E-2],"categories":[],"categories_nodes":[],"categories_segments":[],"categories_sizes":[],"default_left":[0,0,0,0,0,0,0,0,0,0,0,0,0,0,0,0,0,0,0,0,0,0,0,0,0,0,0,0,0,0,0],"id":35,"left_children":[1,3,5,7,9,11,13,15,17,19,21,23,25,27,29,-1,-1,-1,-1,-1,-1,-1,-1,-1,-1,-1,-1,-1,-1,-1,-1],"loss_changes":[1.5125892E3,4.950056E2,2.2871872E2,3.452153E1,2.4412085E2,2.6381836E2,4.358087E1,1.4628123E2,3.3403885E1,4.2814355E2,6.7672626E2,1.0156296E1,4.6988226E2,3.2562653E1,3.13148E1,0E0,0E0,0E0,0E0,0E0,0E0,0E0,0E0,0E0,0E0,0E0,0E0,0E0,0E0,0E0,0E0],"parents":[2147483647,0,0,1,1,2,2,3,3,4,4,5,5,6,6,7,7,8,8,9,9,10,10,11,11,12,12,13,13,14,14],"right_children":[2,4,6,8,10,12,14,16,18,20,22,24,26,28,30,-1,-1,-1,-1,-1,-1,-1,-1,-1,-1,-1,-1,-1,-1,-1,-1],"split_conditions":[1E0,1.4E0,2.8E0,6E-1,4E-1,4E-1,1.02E1,4E-1,1E0,5.8E0,4.8E0,1.2E0,2.2E0,6.6E0,7.4E0,-3.8337055E-1,3.2683793E-1,-1.6045666E-1,-6.6277146E-1,1.0157272E0,2.7435192E-1,-3.9232638E-2,4.5751548E-1,-7.122622E-2,-4.9476138E-1,2.996819E-1,1.0270761E-2,-2.533642E-2,-5.3590488E-2,6.340426E-2,-3.6579367E-2],"split_indices":[0,1,0,0,0,1,1,0,1,1,1,0,1,0,0,0,0,0,0,0,0,0,0,0,0,0,0,0,0,0,0],"split_type":[0,0,0,0,0,0,0,0,0,0,0,0,0,0,0,0,0,0,0,0,0,0,0,0,0,0,0,0,0,0,0],"sum_hessian":[2.332E3,1.66E2,2.166E3,1.6E1,1.5E2,3.97E2,1.769E3,1E1,6E0,3.3E1,1.17E2,9E0,3.88E2,1.643E3,1.26E2,6E0,4E0,4E0,2E0,1.3E1,2E1,4.3E1,7.4E1,1E0,8E0,6.7E1,3.21E2,7.75E2,8.68E2,7.2E1,5.4E1],"tree_param":{"num_deleted":"0","num_feature":"2","num_nodes":"31","size_leaf_vector":"1"}},{"base_weights":[1.6443819E-2,1.9154571E0,-2.625839E-1,-2.576425E0,2.178519E0,-1.5379508E0,-2.3558892E-1,-5.3738813E0,-1.5931214E0,4.8130803E0,1.7750483E0,-3.75915E0,-9.047523E-1,1.9036788E-1,-3.4834373E-1,-8.6054146E-1,2.1603584E-1,-9.666062E-3,-4.267419E-1,5.818103E-1,-1.3492203E-1,1.13436066E-1,3.1748214E-1,1.7486572E-1,-4.6662083E-1,-1.5898095E-1,-4.588208E-2,1.3613853E-1,-4.9788237E-2,-5.6287088E-2,-6.5990924E-3],"categories":[],"categories_nodes":[],"categories_segments":[],"categories_sizes":[],"default_left":[0,0,0,0,0,0,0,0,0,0,0,0,0,0,0,0,0,0,0,0,0,0,0,0,0,0,0,0,0,0,0],"id":36,"left_children":[1,3,5,7,9,11,13,15,17,19,21,23,25,27,29,-1,-1,-1,-1,-1,-1,-1,-1,-1,-1,-1,-1,-1,-1,-1,-1],"loss_changes":[1.2367067E3,3.589242E2,6.969966E1,3.8201492E1,2.9227673E2,5.567021E1,9.5835495E1,1.1597934E2,5.5615234E1,2.3700018E2,2.1791248E2,5.3122696E1,9.657173E0,3.375662E2,9.548543E1,0E0,0E0,0E0,0E0,0E0,0E0,0E0,0E0,0E0,0E0,0E0,0E0,0E0,0E0,0E0,0E0],"parents":[2147483647,0,0,1,1,2,2,3,3,4,4,5,5,6,6,7,7,8,8,9,9,10,10,11,11,12,12,13,13,14,14],"right_children":[2,4,6,8,10,12,14,16,18,20,22,24,26,28,30,-1,-1,-1,-1,-1,-1,-1,-1,-1,-1,-1,-1,-1,-1,-1,-1],"split_conditions":[1.6E0,8E-1,4E-1,4E-1,4E-1,3.4E0,2.6E0,6E-1,6E-1,9.4E0,7.8E0,1.8E0,6.4E0,5E0,7.4E0,-8.6054146E-1,2.1603584E-1,-9.666062E-3,-4.267419E-1,5.818103E-1,-1.3492203E-1,1.13436066E-1,3.1748214E-1,1.7486572E-1,-4.6662083E-1,-1.5898095E-1,-4.588208E-2,1.3613853E-1,-4.9788237E-2,-5.6287088E-2,-6.5990924E-3],"split_indices":[0,1,1,0,0,0,1,1,1,1,1,0,0,0,1,0,0,0,0,0,0,0,0,0,0,0,0,0,0,0,0],"split_type":[0,0,0,0,0,0,0,0,0,0,0,0,0,0,0,0,0,0,0,0,0,0,0,0,0,0,0,0,0,0,0],"sum_hessian":[2.332E3,2.98E2,2.034E3,1.6E1,2.82E2,4.1E1,1.993E3,3E0,1.3E1,3.6E1,2.46E2,8E0,3.3E1,4.17E2,1.576E3,2E0,1E0,9E0,4E0,3.1E1,5E0,1.7E2,7.6E1,1E0,7E0,1.2E1,2.1E1,1.54E2,2.63E2,8.95E2,6.81E2],"tree_param":{"num_deleted":"0","num_feature":"2","num_nodes":"31","size_leaf_vector":"1"}},{"base_weights":[1.4509676E-2,2.412107E0,-1.7026801E-1,-2.0802855E0,2.9018986E0,4.2603815E-1,-2.857578E-1,-9.832878E-1,-3.9275665E0,4.867879E0,2.3108375E0,1.9178963E0,7.505725E-2,-9.215521E-1,-2.4620204E-1,-3.5394427E-1,2.1627744E-1,-1.4096734E-1,-8.258516E-1,1.0969582E0,2.8796753E-1,3.6562186E-2,4.6895805E-1,7.980818E-2,1.1402296E0,-2.858076E-1,3.546499E-2,-2.318617E-1,-4.617344E-2,1.13430135E-1,-3.0578127E-2],"categories":[],"categories_nodes":[],"categories_segments":[],"categories_sizes":[],"default_left":[0,0,0,0,0,0,0,0,0,0,0,0,0,0,0,0,0,0,0,0,0,0,0,0,0,0,0,0,0,0,0],"id":37,"left_children":[1,3,5,7,9,11,13,15,17,19,21,23,25,27,29,-1,-1,-1,-1,-1,-1,-1,-1,-1,-1,-1,-1,-1,-1,-1,-1],"loss_changes":[1.0339822E3,3.7349304E2,1.4935715E2,3.0587944E1,1.6421533E2,1.8416806E2,4.544432E1,1.041569E2,5.3787407E1,3.8087976E2,5.442913E2,7.0249146E2,2.3555724E2,6.702329E1,1.4107545E2,0E0,0E0,0E0,0E0,0E0,0E0,0E0,0E0,0E0,0E0,0E0,0E0,0E0,0E0,0E0,0E0],"parents":[2147483647,0,0,1,1,2,2,3,3,4,4,5,5,6,6,7,7,8,8,9,9,10,10,11,11,12,12,13,13,14,14],"right_children":[2,4,6,8,10,12,14,16,18,20,22,24,26,28,30,-1,-1,-1,-1,-1,-1,-1,-1,-1,-1,-1,-1,-1,-1,-1,-1],"split_conditions":[1E0,1.4E0,2.6E0,8E-1,4E-1,2.2E0,8E-1,4E-1,1E0,3.2E0,6.6E0,2E0,3E0,4.6E0,1.2E0,-3.5394427E-1,2.1627744E-1,-1.4096734E-1,-8.258516E-1,1.0969582E0,2.8796753E-1,3.6562186E-2,4.6895805E-1,7.980818E-2,1.1402296E0,-2.858076E-1,3.546499E-2,-2.318617E-1,-4.617344E-2,1.13430135E-1,-3.0578127E-2],"split_indices":[0,1,0,0,0,1,1,0,1,1,1,1,1,0,1,0,0,0,0,0,0,0,0,0,0,0,0,0,0,0,0],"split_type":[0,0,0,0,0,0,0,0,0,0,0,0,0,0,0,0,0,0,0,0,0,0,0,0,0,0,0,0,0,0,0],"sum_hessian":[2.332E3,1.66E2,2.166E3,1.6E1,1.5E2,3.51E2,1.815E3,1.1E1,5E0,3.3E1,1.17E2,6.6E1,2.85E2,1.05E2,1.71E3,6E0,5E0,4E0,1E0,7E0,2.6E1,6.5E1,5.2E1,6E1,6E0,2.4E1,2.61E2,2.5E1,8E1,7E1,1.64E3],"tree_param":{"num_deleted":"0","num_feature":"2","num_nodes":"31","size_leaf_vector":"1"}},{"base_weights":[1.3727966E-2,2.1756022E0,-1.5288335E-1,-1.9372272E0,2.624228E0,8.0789125E-1,-2.1560086E-1,-7.521334E-1,-3.5227706E0,4.4218273E0,2.0840364E0,1.494806E0,-1.8214252E0,-8.9662546E-1,-1.7283544E-1,-3.2360634E-1,2.875795E-1,-1.2968992E-1,-6.0583E-1,1.0009745E0,2.602377E-1,-5.0057273E-2,3.5725534E-1,6.5475665E-2,8.020631E-1,-4.196124E-1,3.6580637E-1,-1.8472104E-1,-4.1613135E-2,1.4576963E-1,-2.4097571E-2],"categories":[],"categories_nodes":[],"categories_segments":[],"categories_sizes":[],"default_left":[0,0,0,0,0,0,0,0,0,0,0,0,0,0,0,0,0,0,0,0,0,0,0,0,0,0,0,0,0,0,0],"id":38,"left_children":[1,3,5,7,9,11,13,15,17,19,21,23,25,27,29,-1,-1,-1,-1,-1,-1,-1,-1,-1,-1,-1,-1,-1,-1,-1,-1],"loss_changes":[8.406622E2,3.1321912E2,1.3075197E2,2.9293709E1,1.3741284E2,2.4293617E2,5.9113E1,1.0843297E2,3.1649345E1,3.1962683E2,4.5576196E2,5.7584204E2,3.7968945E2,5.4041374E1,2.1322821E2,0E0,0E0,0E0,0E0,0E0,0E0,0E0,0E0,0E0,0E0,0E0,0E0,0E0,0E0,0E0,0E0],"parents":[2147483647,0,0,1,1,2,2,3,3,4,4,5,5,6,6,7,7,8,8,9,9,10,10,11,11,12,12,13,13,14,14],"right_children":[2,4,6,8,10,12,14,16,18,20,22,24,26,28,30,-1,-1,-1,-1,-1,-1,-1,-1,-1,-1,-1,-1,-1,-1,-1,-1],"split_conditions":[1E0,1.4E0,1.6E0,6E-1,4E-1,8.8E0,8E-1,4E-1,1E0,3.2E0,4.8E0,7.8E0,1.04E1,4.6E0,1.2E0,-3.2360634E-1,2.875795E-1,-1.2968992E-1,-6.0583E-1,1.0009745E0,2.602377E-1,-5.0057273E-2,3.5725534E-1,6.5475665E-2,8.020631E-1,-4.196124E-1,3.6580637E-1,-1.8472104E-1,-4.1613135E-2,1.4576963E-1,-2.4097571E-2],"split_indices":[0,1,0,0,0,1,1,0,1,1,1,1,1,0,1,0,0,0,0,0,0,0,0,0,0,0,0,0,0,0,0],"split_type":[0,0,0,0,0,0,0,0,0,0,0,0,0,0,0,0,0,0,0,0,0,0,0,0,0,0,0,0,0,0,0],"sum_hessian":[2.332E3,1.66E2,2.166E3,1.6E1,1.5E2,1.32E2,2.034E3,1E1,6E0,3.3E1,1.17E2,1.05E2,2.7E1,1.19E2,1.915E3,6E0,4E0,4E0,2E0,7E0,2.6E1,4.3E1,7.4E1,9.4E1,1.1E1,1.9E1,8E0,3.9E1,8E1,7.6E1,1.839E3],"tree_param":{"num_deleted":"0","num_feature":"2","num_nodes":"31","size_leaf_vector":"1"}},{"base_weights":[1.3000585E-2,1.9628141E0,-1.3726792E-1,-1.7888901E0,2.3721926E0,2.7765486E-1,-2.691022E-1,-7.8000355E-1,-3.5085151E0,4.15454E0,1.8771318E0,-3.9517272E0,3.762387E-1,-3.2855386E-1,7.5259216E-2,-2.958687E-1,1.8917942E-1,-1.19314805E-1,-7.542675E-1,2.8938884E-1,1.2255629E0,-9.8532814E-1,2.6909918E-1,-7.4445724E-2,-4.1756192E-1,1.870539E-1,5.3116544E-3,1.0671482E-2,-3.838785E-2,7.1900666E-2,-3.3568885E-2],"categories":[],"categories_nodes":[],"categories_segments":[],"categories_sizes":[],"default_left":[0,0,0,0,0,0,0,0,0,0,0,0,0,0,0,0,0,0,0,0,0,0,0,0,0,0,0,0,0,0,0],"id":39,"left_children":[1,3,5,7,9,11,13,15,17,19,21,23,25,27,29,-1,-1,-1,-1,-1,-1,-1,-1,-1,-1,-1,-1,-1,-1,-1,-1],"loss_changes":[6.838281E2,2.607334E2,1.1861186E2,2.675676E1,1.2543927E2,2.1955101E2,3.370259E1,7.544924E1,4.704383E1,2.9133844E2,1.1721447E3,5.5084076E0,2.471155E2,3.382672E1,6.452622E1,0E0,0E0,0E0,0E0,0E0,0E0,0E0,0E0,0E0,0E0,0E0,0E0,0E0,0E0,0E0,0E0],"parents":[2147483647,0,0,1,1,2,2,3,3,4,4,5,5,6,6,7,7,8,8,9,9,10,10,11,11,12,12,13,13,14,14],"right_children":[2,4,6,8,10,12,14,16,18,20,22,24,26,28,30,-1,-1,-1,-1,-1,-1,-1,-1,-1,-1,-1,-1,-1,-1,-1,-1],"split_conditions":[1E0,1.4E0,3.4E0,8E-1,3.4E0,4E-1,9.4E0,4E-1,1E0,3.2E0,3.8E0,1.2E0,2.2E0,1.2E0,6.2E0,-2.958687E-1,1.8917942E-1,-1.19314805E-1,-7.542675E-1,2.8938884E-1,1.2255629E0,-9.8532814E-1,2.6909918E-1,-7.4445724E-2,-4.1756192E-1,1.870539E-1,5.3116544E-3,1.0671482E-2,-3.838785E-2,7.1900666E-2,-3.3568885E-2],"split_indices":[0,1,0,0,1,1,1,0,1,1,1,0,1,1,0,0,0,0,0,0,0,0,0,0,0,0,0,0,0,0,0],"split_type":[0,0,0,0,0,0,0,0,0,0,0,0,0,0,0,0,0,0,0,0,0,0,0,0,0,0,0,0,0,0,0],"sum_hessian":[2.332E3,1.66E2,2.166E3,1.6E1,1.5E2,5.22E2,1.644E3,1.1E1,5E0,3.1E1,1.19E2,1.1E1,5.11E2,1.402E3,2.42E2,6E0,5E0,4E0,1E0,2.8E1,3E0,7E0,1.12E2,1E0,1E1,9E1,4.21E2,1.58E2,1.244E3,9.4E1,1.48E2],"tree_param":{"num_deleted":"0","num_feature":"2","num_nodes":"31","size_leaf_vector":"1"}},{"base_weights":[1.1498423E-2,1.3001842E0,-1.7785223E-1,-2.2931807E0,1.5114459E0,-8.144007E-1,-1.3789207E-1,-4.1149373E0,-1.1912042E0,2.749846E0,1.0598121E0,-1.6624181E0,-3.855723E-1,1.273508E0,-1.9688115E-1,-2.1398716E-1,-5.3767127E-1,1.750442E-2,-2.5866267E-1,4.0343413E-1,8.9773275E-2,3.492533E-1,6.4847074E-2,1.394621E-1,-1.9479786E-1,9.271883E-2,-5.8352716E-2,3.059373E-1,-1.787902E-1,1.452432E-2,-2.7819598E-2],"categories":[],"categories_nodes":[],"categories_segments":[],"categories_sizes":[],"default_left":[0,0,0,0,0,0,0,0,0,0,0,0,0,0,0,0,0,0,0,0,0,0,0,0,0,0,0,0,0,0,0],"id":40,"left_children":[1,3,5,7,9,11,13,15,17,19,21,23,25,27,29,-1,-1,-1,-1,-1,-1,-1,-1,-1,-1,-1,-1,-1,-1,-1,-1],"loss_changes":[5.695147E2,2.3044882E2,5.1651146E1,2.9226326E1,1.5536859E2,4.299749E1,1.5977151E2,3.4470596E0,2.33307E1,1.7480548E2,2.0687701E2,3.7635483E1,2.1590294E1,4.2644925E2,5.1228798E1,0E0,0E0,0E0,0E0,0E0,0E0,0E0,0E0,0E0,0E0,0E0,0E0,0E0,0E0,0E0,0E0],"parents":[2147483647,0,0,1,1,2,2,3,3,4,4,5,5,6,6,7,7,8,8,9,9,10,10,11,11,12,12,13,13,14,14],"right_children":[2,4,6,8,10,12,14,16,18,20,22,24,26,28,30,-1,-1,-1,-1,-1,-1,-1,-1,-1,-1,-1,-1,-1,-1,-1,-1],"split_conditions":[1.6E0,8E-1,8E-1,4E-1,6E-1,4.6E0,1.2E0,1.2E0,6E-1,6.8E0,2.4E0,1.8E0,5.4E0,7.8E0,3.4E0,-2.1398716E-1,-5.3767127E-1,1.750442E-2,-2.5866267E-1,4.0343413E-1,8.9773275E-2,3.492533E-1,6.4847074E-2,1.394621E-1,-1.9479786E-1,9.271883E-2,-5.8352716E-2,3.059373E-1,-1.787902E-1,1.452432E-2,-2.7819598E-2],"split_indices":[0,1,1,1,0,0,1,0,1,1,1,0,0,0,0,0,0,0,0,0,0,0,0,0,0,0,0,0,0,0,0],"split_type":[0,0,0,0,0,0,0,0,0,0,0,0,0,0,0,0,0,0,0,0,0,0,0,0,0,0,0,0,0,0,0],"sum_hessian":[2.332E3,2.98E2,2.034E3,1.6E1,2.82E2,1.19E2,1.915E3,5E0,1.1E1,7.4E1,2.08E2,3.9E1,8E1,7.6E1,1.839E3,3E0,2E0,6E0,5E0,4.3E1,3.1E1,2.9E1,1.79E2,3E0,3.6E1,1E1,7E1,4.8E1,2.8E1,3.53E2,1.486E3],"tree_param":{"num_deleted":"0","num_feature":"2","num_nodes":"31","size_leaf_vector":"1"}},{"base_weights":[1.0351284E-2,1.1698798E0,-1.6002187E-1,-2.1222637E0,1.3635073E0,-6.846895E-1,-1.157953E-1,-3.8287199E0,-1.0921804E0,1.1539055E0,3.7976956E0,-1.8459864E0,-3.6333928E-1,2.784257E0,-1.7720087E-1,-1.9793816E-1,-5.0182647E-1,-2.2503804E-1,4.4108298E-2,1.4796118E-1,-3.627135E-1,5.097088E-1,-3.323844E-1,-1.3977088E-1,-3.1281748E-1,1.4792991E-2,-1.1865821E-1,8.294968E-1,3.2308612E-2,-2.8524622E-2,4.3826043E-3],"categories":[],"categories_nodes":[],"categories_segments":[],"categories_sizes":[],"default_left":[0,0,0,0,0,0,0,0,0,0,0,0,0,0,0,0,0,0,0,0,0,0,0,0,0,0,0,0,0,0,0],"id":41,"left_children":[1,3,5,7,9,11,13,15,17,19,21,23,25,27,29,-1,-1,-1,-1,-1,-1,-1,-1,-1,-1,-1,-1,-1,-1,-1,-1],"loss_changes":[4.610773E2,1.9349106E2,4.7141373E1,2.5700806E1,1.4000726E2,5.8292206E1,3.349264E2,3.2661667E0,2.230251E1,4.133572E2,2.2052286E2,1.5170113E1,5.2787865E1,5.2626917E2,4.3953423E1,0E0,0E0,0E0,0E0,0E0,0E0,0E0,0E0,0E0,0E0,0E0,0E0,0E0,0E0,0E0,0E0],"parents":[2147483647,0,0,1,1,2,2,3,3,4,4,5,5,6,6,7,7,8,8,9,9,10,10,11,11,12,12,13,13,14,14],"right_children":[2,4,6,8,10,12,14,16,18,20,22,24,26,28,30,-1,-1,-1,-1,-1,-1,-1,-1,-1,-1,-1,-1,-1,-1,-1,-1],"split_conditions":[1.6E0,8E-1,1E0,4E-1,1.02E1,3.6E0,1.2E0,1.2E0,1E0,9.6E0,1.4E0,8E-1,8.2E0,4.2E0,7.8E0,-1.9793816E-1,-5.0182647E-1,-2.2503804E-1,4.4108298E-2,1.4796118E-1,-3.627135E-1,5.097088E-1,-3.323844E-1,-1.3977088E-1,-3.1281748E-1,1.4792991E-2,-1.1865821E-1,8.294968E-1,3.2308612E-2,-2.8524622E-2,4.3826043E-3],"split_indices":[0,1,1,1,1,0,1,0,0,1,0,1,0,0,1,0,0,0,0,0,0,0,0,0,0,0,0,0,0,0,0],"split_type":[0,0,0,0,0,0,0,0,0,0,0,0,0,0,0,0,0,0,0,0,0,0,0,0,0,0,0,0,0,0,0],"sum_hessian":[2.332E3,2.98E2,2.034E3,1.6E1,2.82E2,1.57E2,1.877E3,5E0,1.1E1,2.61E2,2.1E1,3.3E1,1.24E2,3.8E1,1.839E3,3E0,2E0,6E0,5E0,2.45E2,1.6E1,1.8E1,3E0,2.6E1,7E0,7.7E1,4.7E1,1.1E1,2.7E1,1.235E3,6.04E2],"tree_param":{"num_deleted":"0","num_feature":"2","num_nodes":"31","size_leaf_vector":"1"}},{"base_weights":[9.042723E-3,1.4715463E0,-1.0366939E-1,1.5043847E-1,2.4233723E0,-1.31972E0,-7.7844635E-2,1.1222392E0,-7.6427727E0,2.2216163E0,5.1130676E0,-3.1947873E0,-6.1911637E-1,2.7961743E-1,-1.9133268E-1,4.664361E-2,1.0842679E0,4.2428055E-1,-9.946828E-1,2.3764768E-1,-3.164734E-1,9.6969604E-2,6.9423294E-1,-5.0127126E-2,-3.3940822E-1,-1.2349986E-1,-2.2704436E-2,1.5715483E-1,3.6311038E-5,2.9800996E-2,-2.3266815E-2],"categories":[],"categories_nodes":[],"categories_segments":[],"categories_sizes":[],"default_left":[0,0,0,0,0,0,0,0,0,0,0,0,0,0,0,0,0,0,0,0,0,0,0,0,0,0,0,0,0,0,0],"id":42,"left_children":[1,3,5,7,9,11,13,15,17,19,21,23,25,27,29,-1,-1,-1,-1,-1,-1,-1,-1,-1,-1,-1,-1,-1,-1,-1,-1],"loss_changes":[3.8472864E2,2.0963211E2,6.795019E1,5.462919E2,4.127887E1,5.713761E1,8.6178665E1,4.0292307E2,2.6128262E2,8.426108E1,3.8743927E1,4.7402954E0,7.9295864E0,1.8471738E2,3.267559E1,0E0,0E0,0E0,0E0,0E0,0E0,0E0,0E0,0E0,0E0,0E0,0E0,0E0,0E0,0E0,0E0],"parents":[2147483647,0,0,1,1,2,2,3,3,4,4,5,5,6,6,7,7,8,8,9,9,10,10,11,11,12,12,13,13,14,14],"right_children":[2,4,6,8,10,12,14,16,18,20,22,24,26,28,30,-1,-1,-1,-1,-1,-1,-1,-1,-1,-1,-1,-1,-1,-1,-1,-1],"split_conditions":[1E0,4.8E0,4E-1,4.4E0,1.06E1,3.4E0,3.4E0,4.2E0,4E-1,1.04E1,6E-1,1.2E0,6.4E0,2.2E0,1.2E0,4.664361E-2,1.0842679E0,4.2428055E-1,-9.946828E-1,2.3764768E-1,-3.164734E-1,9.6969604E-2,6.9423294E-1,-5.0127126E-2,-3.3940822E-1,-1.2349986E-1,-2.2704436E-2,1.5715483E-1,3.6311038E-5,2.9800996E-2,-2.3266815E-2],"split_indices":[0,1,1,1,1,0,0,1,0,1,0,0,0,1,1,0,0,0,0,0,0,0,0,0,0,0,0,0,0,0,0],"split_type":[0,0,0,0,0,0,0,0,0,0,0,0,0,0,0,0,0,0,0,0,0,0,0,0,0,0,0,0,0,0,0],"sum_hessian":[2.332E3,1.66E2,2.166E3,7E1,9.6E1,4.4E1,2.122E3,6.3E1,7E0,9.1E1,5E0,1.1E1,3.3E1,5.11E2,1.611E3,6E1,3E0,1E0,6E0,8.9E1,2E0,2E0,3E0,1E0,1E1,1.2E1,2.1E1,9E1,4.21E2,1.25E2,1.486E3],"tree_param":{"num_deleted":"0","num_feature":"2","num_nodes":"31","size_leaf_vector":"1"}},{"base_weights":[8.525276E-3,1.332017E0,-9.3473636E-2,-1.7910398E0,1.6747981E0,-1.1996531E0,-6.998256E-2,-7.1751887E-1,-3.2221386E0,3.305264E0,1.2260506E0,-2.9077692E0,-5.6150484E-1,3.1641194E-1,-1.5657477E-1,-2.823786E-1,2.374759E-1,-1.0138214E-1,-5.828621E-1,2.1220548E-1,1.1057215E0,-9.345116E-1,1.9636017E-1,-4.7620773E-2,-3.0855286E-1,-1.1209996E-1,-2.0537134E-2,1.8894516E-1,-5.912575E-3,-1.911047E-2,2.821279E-2],"categories":[],"categories_nodes":[],"categories_segments":[],"categories_sizes":[],"default_left":[0,0,0,0,0,0,0,0,0,0,0,0,0,0,0,0,0,0,0,0,0,0,0,0,0,0,0,0,0,0,0],"id":43,"left_children":[1,3,5,7,9,11,13,15,17,19,21,23,25,27,29,-1,-1,-1,-1,-1,-1,-1,-1,-1,-1,-1,-1,-1,-1,-1,-1],"loss_changes":[3.150672E2,1.8177728E2,5.6226288E1,2.3805405E1,1.0642941E2,4.7418686E1,7.108248E1,7.835061E1,3.4382393E1,2.7004572E2,9.5396313E2,3.7174377E0,6.544443E0,2.2990788E2,2.6336342E1,0E0,0E0,0E0,0E0,0E0,0E0,0E0,0E0,0E0,0E0,0E0,0E0,0E0,0E0,0E0,0E0],"parents":[2147483647,0,0,1,1,2,2,3,3,4,4,5,5,6,6,7,7,8,8,9,9,10,10,11,11,12,12,13,13,14,14],"right_children":[2,4,6,8,10,12,14,16,18,20,22,24,26,28,30,-1,-1,-1,-1,-1,-1,-1,-1,-1,-1,-1,-1,-1,-1,-1,-1],"split_conditions":[1E0,1.4E0,4E-1,6E-1,3.4E0,3.4E0,2.8E0,4E-1,1E0,3.2E0,3.8E0,1.2E0,6.4E0,2.4E0,1.02E1,-2.823786E-1,2.374759E-1,-1.0138214E-1,-5.828621E-1,2.1220548E-1,1.1057215E0,-9.345116E-1,1.9636017E-1,-4.7620773E-2,-3.0855286E-1,-1.1209996E-1,-2.0537134E-2,1.8894516E-1,-5.912575E-3,-1.911047E-2,2.821279E-2],"split_indices":[0,1,1,0,1,0,0,0,1,1,1,0,0,1,1,0,0,0,0,0,0,0,0,0,0,0,0,0,0,0,0],"split_type":[0,0,0,0,0,0,0,0,0,0,0,0,0,0,0,0,0,0,0,0,0,0,0,0,0,0,0,0,0,0,0],"sum_hessian":[2.332E3,1.66E2,2.166E3,1.6E1,1.5E2,4.4E1,2.122E3,1E1,6E0,3.1E1,1.19E2,1.1E1,3.3E1,3.88E2,1.734E3,6E0,4E0,4E0,2E0,2.8E1,3E0,7E0,1.12E2,1E0,1E1,1.2E1,2.1E1,7.4E1,3.14E2,1.608E3,1.26E2],"tree_param":{"num_deleted":"0","num_feature":"2","num_nodes":"31","size_leaf_vector":"1"}},{"base_weights":[7.4808346E-3,8.7816155E-1,-1.2045087E-1,-1.4688832E0,1.088336E0,-6.086273E-1,-7.931544E-2,-4.2880197E0,-5.4969805E-1,3.2042012E0,7.765367E-1,-1.704293E0,-3.057373E-1,2.4733148E0,-1.33377E-1,-7.019133E-1,-1.1676798E-1,2.346016E-1,-1.1987074E-1,8.114398E-1,1.4487949E-1,-8.407332E-2,1.1220949E-1,-1.23848535E-1,-3.0633572E-1,1.6688628E-2,-1.06738105E-1,7.3811543E-1,2.8162256E-2,-2.4033876E-2,4.859084E-3],"categories":[],"categories_nodes":[],"categories_segments":[],"categories_sizes":[],"default_left":[0,0,0,0,0,0,0,0,0,0,0,0,0,0,0,0,0,0,0,0,0,0,0,0,0,0,0,0,0,0,0],"id":44,"left_children":[1,3,5,7,9,11,13,15,17,19,21,23,25,27,29,-1,-1,-1,-1,-1,-1,-1,-1,-1,-1,-1,-1,-1,-1,-1,-1],"loss_changes":[2.599732E2,1.4909196E2,4.081727E1,6.2425594E1,1.7893625E2,5.1913803E1,2.594923E2,4.293592E1,4.0399094E1,2.8992255E2,1.3562881E2,1.7730202E1,4.5174477E1,4.1742377E2,3.5824703E1,0E0,0E0,0E0,0E0,0E0,0E0,0E0,0E0,0E0,0E0,0E0,0E0,0E0,0E0,0E0,0E0],"parents":[2147483647,0,0,1,1,2,2,3,3,4,4,5,5,6,6,7,7,8,8,9,9,10,10,11,11,12,12,13,13,14,14],"right_children":[2,4,6,8,10,12,14,16,18,20,22,24,26,28,30,-1,-1,-1,-1,-1,-1,-1,-1,-1,-1,-1,-1,-1,-1,-1,-1],"split_conditions":[1.6E0,1.2E0,1E0,4E-1,4E-1,3.6E0,1.2E0,6E-1,6E-1,3.2E0,3E0,8E-1,8.2E0,4.2E0,7.4E0,-7.019133E-1,-1.1676798E-1,2.346016E-1,-1.1987074E-1,8.114398E-1,1.4487949E-1,-8.407332E-2,1.1220949E-1,-1.23848535E-1,-3.0633572E-1,1.6688628E-2,-1.06738105E-1,7.3811543E-1,2.8162256E-2,-2.4033876E-2,4.859084E-3],"split_indices":[0,1,1,0,0,0,1,1,0,1,1,1,0,0,1,0,0,0,0,0,0,0,0,0,0,0,0,0,0,0,0],"split_type":[0,0,0,0,0,0,0,0,0,0,0,0,0,0,0,0,0,0,0,0,0,0,0,0,0,0,0,0,0,0,0],"sum_hessian":[2.332E3,2.98E2,2.034E3,2.4E1,2.74E2,1.57E2,1.877E3,5E0,1.9E1,3.4E1,2.4E2,3.3E1,1.24E2,3.8E1,1.839E3,2E0,3E0,3E0,1.6E1,8E0,2.6E1,4.2E1,1.98E2,2.6E1,7E0,7.7E1,4.7E1,1.1E1,2.7E1,1.158E3,6.81E2],"tree_param":{"num_deleted":"0","num_feature":"2","num_nodes":"31","size_leaf_vector":"1"}},{"base_weights":[6.9499165E-3,1.3042518E0,-6.398568E-2,1.0120531E0,4.828052E0,-6.942836E-1,-2.431549E-2,2.3107352E0,4.4746256E-1,5.5573124E-1,1.517095E0,-1.4405469E0,-2.595822E-1,4.357672E-1,-1.2329287E-1,-2.4973953E-2,8.4808487E-1,-1.169642E0,1.4130071E-1,-1.975502E-1,4.2511445E-1,-1.2410443E-1,-2.2829293E-1,4.16092E-2,-4.6348836E-2,1.6622728E-1,-3.4765128E-2,6.690038E-2,-1.7537992E-2],"categories":[],"categories_nodes":[],"categories_segments":[],"categories_sizes":[],"default_left":[0,0,0,0,0,0,0,0,0,0,0,0,0,0,0,0,0,0,0,0,0,0,0,0,0,0,0,0,0],"id":45,"left_children":[1,3,5,7,9,11,13,15,17,-1,19,21,23,25,27,-1,-1,-1,-1,-1,-1,-1,-1,-1,-1,-1,-1,-1,-1],"loss_changes":[2.1477753E2,1.197014E2,5.5317062E1,8.1820305E1,1.3299957E1,4.2122673E1,9.490892E1,5.392643E2,9.545638E2,0E0,3.7044945E1,5.233551E0,1.17658825E1,3.5513788E2,7.089263E1,0E0,0E0,0E0,0E0,0E0,0E0,0E0,0E0,0E0,0E0,0E0,0E0,0E0,0E0],"parents":[2147483647,0,0,1,1,2,2,3,3,4,4,5,5,6,6,7,7,8,8,10,10,11,11,12,12,13,13,14,14],"right_children":[2,4,6,8,10,12,14,16,18,-1,20,22,24,26,28,-1,-1,-1,-1,-1,-1,-1,-1,-1,-1,-1,-1,-1,-1],"split_conditions":[8E-1,1.02E1,8E-1,3.4E0,1.08E1,4.4E0,2.6E0,2.6E0,3.8E0,5.5573124E-1,6E-1,3.8E0,5.8E0,4.6E0,1.4E0,-2.4973953E-2,8.4808487E-1,-1.169642E0,1.4130071E-1,-1.975502E-1,4.2511445E-1,-1.2410443E-1,-2.2829293E-1,4.16092E-2,-4.6348836E-2,1.6622728E-1,-3.4765128E-2,6.690038E-2,-1.7537992E-2],"split_indices":[0,1,1,1,1,0,1,1,1,0,0,0,0,0,0,0,0,0,0,0,0,0,0,0,0,0,0,0,0],"split_type":[0,0,0,0,0,0,0,0,0,0,0,0,0,0,0,0,0,0,0,0,0,0,0,0,0,0,0,0,0],"sum_hessian":[2.332E3,1.2E2,2.212E3,1.12E2,8E0,1.3E2,2.082E3,3.3E1,7.9E1,6E0,2E0,4.7E1,8.3E1,3.68E2,1.714E3,2.4E1,9E0,5E0,7.4E1,1E0,1E0,4E1,7E0,1.9E1,6.4E1,1.43E2,2.25E2,1.05E2,1.609E3],"tree_param":{"num_deleted":"0","num_feature":"2","num_nodes":"29","size_leaf_vector":"1"}},{"base_weights":[6.427226E-3,1.4909666E0,-4.6265572E-2,-1.4352783E0,2.4259489E0,-1.8405657E-1,2.2700818E-1,2.749822E-1,-8.3450663E-1,1.3003395E0,1.2493308E0,-1.8281164E0,-8.146356E-2,4.01378E0,-2.3985175E-2,-9.544876E-2,6.330671E-1,-5.191318E-1,1.8445984E-1,-4.8741132E-1,-5.089896E-5,2.0888169E-1,-1.7597249E-2,7.185419E-1,1.3982911E-1,-2.0276597E-1,6.125023E-3],"categories":[],"categories_nodes":[],"categories_segments":[],"categories_sizes":[],"default_left":[0,0,0,0,0,0,0,0,0,0,0,0,0,0,0,0,0,0,0,0,0,0,0,0,0,0,0],"id":46,"left_children":[1,3,5,7,9,11,13,15,-1,-1,17,19,21,23,25,-1,-1,-1,-1,-1,-1,-1,-1,-1,-1,-1,-1],"loss_changes":[1.825668E2,2.2236092E2,8.491539E1,2.3864551E2,7.42937E2,2.5268597E2,7.186399E2,1.3261241E2,0E0,0E0,2.2427481E2,4.898835E2,2.8998407E2,3.7983594E2,1.21380844E2,0E0,0E0,0E0,0E0,0E0,0E0,0E0,0E0,0E0,0E0,0E0,0E0],"parents":[2147483647,0,0,1,1,2,2,3,3,4,4,5,5,6,6,7,7,10,10,11,11,12,12,13,13,14,14],"right_children":[2,4,6,8,10,12,14,16,-1,-1,18,20,22,24,26,-1,-1,-1,-1,-1,-1,-1,-1,-1,-1,-1,-1],"split_conditions":[6E-1,2.6E0,7.4E0,2.2E0,3.2E0,1.2E0,1.2E0,2E0,-8.3450663E-1,1.3003395E0,3.8E0,3.2E0,1.6E0,9E0,1.6E0,-9.544876E-2,6.330671E-1,-5.191318E-1,1.8445984E-1,-4.8741132E-1,-5.089896E-5,2.0888169E-1,-1.7597249E-2,7.185419E-1,1.3982911E-1,-2.0276597E-1,6.125023E-3],"split_indices":[0,1,1,1,1,0,0,1,0,0,1,1,0,1,0,0,0,0,0,0,0,0,0,0,0,0,0],"split_type":[0,0,0,0,0,0,0,0,0,0,0,0,0,0,0,0,0,0,0,0,0,0,0,0,0,0,0],"sum_hessian":[2.332E3,7.9E1,2.253E3,1.9E1,6E1,1.498E3,7.55E2,1.6E1,3E0,5E0,5.5E1,8.7E1,1.411E3,4.6E1,7.09E2,1.4E1,2E0,4E0,5.1E1,3.2E1,5.5E1,5.8E1,1.353E3,2E1,2.6E1,2.8E1,6.81E2],"tree_param":{"num_deleted":"0","num_feature":"2","num_nodes":"27","size_leaf_vector":"1"}},{"base_weights":[6.2278123E-3,1.3502276E0,-4.1476805E-2,-1.3065945E0,2.1991818E0,-1.6584861E-1,2.0518301E-1,2.7910972E-1,-7.719189E-1,1.1919779E0,1.1184183E0,-1.6508447E0,-7.318183E-2,3.6306653E0,-2.1863246E-2,-8.6540125E-2,5.908628E-1,-4.7760102E-1,1.6636823E-1,-4.4014716E-1,-4.6007972E-5,1.8834738E-1,-1.5838826E-2,6.5010965E-1,1.2636386E-1,-1.8318853E-1,5.5134553E-3],"categories":[],"categories_nodes":[],"categories_segments":[],"categories_sizes":[],"default_left":[0,0,0,0,0,0,0,0,0,0,0,0,0,0,0,0,0,0,0,0,0,0,0,0,0,0,0],"id":47,"left_children":[1,3,5,7,9,11,13,15,-1,-1,17,19,21,23,25,-1,-1,-1,-1,-1,-1,-1,-1,-1,-1,-1,-1],"loss_changes":[1.4963628E2,1.8331506E2,6.9181175E1,2.0552405E2,6.2751434E2,2.0615631E2,5.8805304E2,1.14645096E2,0E0,0E0,1.8793085E2,3.9948212E2,2.3570645E2,3.1112115E2,9.905208E1,0E0,0E0,0E0,0E0,0E0,0E0,0E0,0E0,0E0,0E0,0E0,0E0],"parents":[2147483647,0,0,1,1,2,2,3,3,4,4,5,5,6,6,7,7,10,10,11,11,12,12,13,13,14,14],"right_children":[2,4,6,8,10,12,14,16,-1,-1,18,20,22,24,26,-1,-1,-1,-1,-1,-1,-1,-1,-1,-1,-1,-1],"split_conditions":[6E-1,2.6E0,7.4E0,2.2E0,3.2E0,1.2E0,1.2E0,2E0,-7.719189E-1,1.1919779E0,3.8E0,3.2E0,1.6E0,9E0,1.6E0,-8.6540125E-2,5.908628E-1,-4.7760102E-1,1.6636823E-1,-4.4014716E-1,-4.6007972E-5,1.8834738E-1,-1.5838826E-2,6.5010965E-1,1.2636386E-1,-1.8318853E-1,5.5134553E-3],"split_indices":[0,1,1,1,1,0,0,1,0,0,1,1,0,1,0,0,0,0,0,0,0,0,0,0,0,0,0],"split_type":[0,0,0,0,0,0,0,0,0,0,0,0,0,0,0,0,0,0,0,0,0,0,0,0,0,0,0],"sum_hessian":[2.332E3,7.9E1,2.253E3,1.9E1,6E1,1.498E3,7.55E2,1.6E1,3E0,5E0,5.5E1,8.7E1,1.411E3,4.6E1,7.09E2,1.4E1,2E0,4E0,5.1E1,3.2E1,5.5E1,5.8E1,1.353E3,2E1,2.6E1,2.8E1,6.81E2],"tree_param":{"num_deleted":"0","num_feature":"2","num_nodes":"27","size_leaf_vector":"1"}},{"base_weights":[6.0095633E-3,1.2228703E0,-3.7182484E-2,-1.1893151E0,1.9937037E0,-1.4084889E-1,2.0811369E-1,2.8086448E-1,-7.1402496E-1,1.0926467E0,1.0010202E0,-1.3470744E0,-6.4759046E-2,3.6534514E0,-1.6437046E-2,-7.846304E-2,5.514717E-1,-4.39393E-1,1.500515E-1,-3.9746624E-1,7.3207365E-3,2.3729408E-1,-1.1810719E-2,7.930577E-1,1.1419579E-1,-1.949543E-1,6.6665756E-3],"categories":[],"categories_nodes":[],"categories_segments":[],"categories_sizes":[],"default_left":[0,0,0,0,0,0,0,0,0,0,0,0,0,0,0,0,0,0,0,0,0,0,0,0,0,0,0],"id":48,"left_children":[1,3,5,7,9,11,13,15,-1,-1,17,19,21,23,25,-1,-1,-1,-1,-1,-1,-1,-1,-1,-1,-1,-1],"loss_changes":[1.2266493E2,1.511226E2,5.734622E1,1.7698428E2,5.299742E2,1.4538646E2,5.1840765E2,9.912995E1,0E0,0E0,1.5749915E2,3.51091E2,1.9431E2,4.3136456E2,1.0133727E2,0E0,0E0,0E0,0E0,0E0,0E0,0E0,0E0,0E0,0E0,0E0,0E0],"parents":[2147483647,0,0,1,1,2,2,3,3,4,4,5,5,6,6,7,7,10,10,11,11,12,12,13,13,14,14],"right_children":[2,4,6,8,10,12,14,16,-1,-1,18,20,22,24,26,-1,-1,-1,-1,-1,-1,-1,-1,-1,-1,-1,-1],"split_conditions":[6E-1,2.6E0,7.8E0,2.2E0,3.2E0,1.2E0,1.2E0,2E0,-7.1402496E-1,1.0926467E0,3.8E0,3.2E0,1.4E0,9E0,1.6E0,-7.846304E-2,5.514717E-1,-4.39393E-1,1.500515E-1,-3.9746624E-1,7.3207365E-3,2.3729408E-1,-1.1810719E-2,7.930577E-1,1.1419579E-1,-1.949543E-1,6.6665756E-3],"split_indices":[0,1,1,1,1,0,0,1,0,0,1,1,0,1,0,0,0,0,0,0,0,0,0,0,0,0,0],"split_type":[0,0,0,0,0,0,0,0,0,0,0,0,0,0,0,0,0,0,0,0,0,0,0,0,0,0,0],"sum_hessian":[2.332E3,7.9E1,2.253E3,1.9E1,6E1,1.584E3,6.69E2,1.6E1,3E0,5E0,5.5E1,9.3E1,1.491E3,4E1,6.29E2,1.4E1,2E0,4E0,5.1E1,3.2E1,6.1E1,3.1E1,1.46E3,1.4E1,2.6E1,2.5E1,6.04E2],"tree_param":{"num_deleted":"0","num_feature":"2","num_nodes":"27","size_leaf_vector":"1"}},{"base_weights":[5.8867857E-3,1.1076095E0,-3.321867E-2,2.1362064E0,-5.020423E-1,2.5664082E-1,-1.1663156E-1,-1.0824344E0,4.21076E0,-2.9398984E-1,5.8297615E-2,1.0218459E0,-2.4183121E-1,-3.3293667E-1,1.6849612E-1,2.8060151E-2,-6.6047287E-1,1.0015925E0,2.64909E-1,1.3870405E-1,-9.4190314E-2,-1.13471285E-1,1.7531389E-1,-4.8441853E-2,2.7028996E-2,-4.20362E-1,-2.493124E-2,2.983781E-1,-1.8105134E-3],"categories":[],"categories_nodes":[],"categories_segments":[],"categories_sizes":[],"default_left":[0,0,0,0,0,0,0,0,0,0,0,0,0,0,0,0,0,0,0,0,0,0,0,0,0,0,0,0,0],"id":49,"left_children":[1,3,5,7,9,11,13,15,17,-1,19,21,23,25,27,-1,-1,-1,-1,-1,-1,-1,-1,-1,-1,-1,-1,-1,-1],"loss_changes":[1.0055029E2,1.3352707E2,5.452719E1,3.317428E2,4.388428E1,1.924895E2,1.0804827E2,1.52395E2,2.4543951E2,0E0,3.7189716E1,3.158275E2,3.814657E1,3.2134033E2,3.972078E2,0E0,0E0,0E0,0E0,0E0,0E0,0E0,0E0,0E0,0E0,0E0,0E0,0E0,0E0],"parents":[2147483647,0,0,1,1,2,2,3,3,4,4,5,5,6,6,7,7,8,8,10,10,11,11,12,12,13,13,14,14],"right_children":[2,4,6,8,10,12,14,16,18,-1,20,22,24,26,28,-1,-1,-1,-1,-1,-1,-1,-1,-1,-1,-1,-1,-1,-1],"split_conditions":[6E-1,6.8E0,2.6E0,2.6E0,7.6E0,4.6E0,7.4E0,2.2E0,3.2E0,-2.9398984E-1,8.8E0,8E-1,1.8E0,8E-1,1.2E0,2.8060151E-2,-6.6047287E-1,1.0015925E0,2.64909E-1,1.3870405E-1,-9.4190314E-2,-1.13471285E-1,1.7531389E-1,-4.8441853E-2,2.7028996E-2,-4.20362E-1,-2.493124E-2,2.983781E-1,-1.8105134E-3],"split_indices":[0,1,1,1,1,0,1,1,1,0,1,1,1,0,0,0,0,0,0,0,0,0,0,0,0,0,0,0,0],"split_type":[0,0,0,0,0,0,0,0,0,0,0,0,0,0,0,0,0,0,0,0,0,0,0,0,0,0,0,0,0],"sum_hessian":[2.332E3,7.9E1,2.253E3,4.8E1,3.1E1,5.03E2,1.75E3,1.9E1,2.9E1,5E0,2.6E1,1.98E2,3.05E2,9.95E2,7.55E2,1.6E1,3E0,5E0,2.4E1,1.1E1,1.5E1,5E1,1.48E2,2.07E2,9.8E1,2E1,9.75E2,4.6E1,7.09E2],"tree_param":{"num_deleted":"0","num_feature":"2","num_nodes":"29","size_leaf_vector":"1"}},{"base_weights":[5.41638E-3,6.868465E-1,-4.7100578E-2,5.68519E-1,3.7672145E0,-8.623633E-1,-2.979774E-2,6.4724165E-1,-3.8195293E0,3.0881247E-1,5.4192126E-1,-2.2607741E0,-3.4344286E-1,2.639598E-1,-9.793766E-2,5.226012E-2,4.4065768E-1,3.4496385E-1,-9.1789323E-1,2.5432894E-1,-2.0800705E-1,3.8883876E-2,-2.5369972E-1,-8.970436E-2,-7.0415845E-5,-4.686291E-1,3.640566E-2,-2.177026E-2,1.0374758E-2],"categories":[],"categories_nodes":[],"categories_segments":[],"categories_sizes":[],"default_left":[0,0,0,0,0,0,0,0,0,0,0,0,0,0,0,0,0,0,0,0,0,0,0,0,0,0,0,0,0],"id":50,"left_children":[1,3,5,7,9,11,13,15,17,19,-1,21,23,25,27,-1,-1,-1,-1,-1,-1,-1,-1,-1,-1,-1,-1,-1,-1],"loss_changes":[8.352257E1,5.872847E1,3.0542778E1,5.8433243E1,3.2606117E1,3.187843E1,4.2521122E1,7.266757E1,1.4853918E2,2.1303932E1,0E0,9.769093E0,6.45054E0,1.9990778E2,4.16655E1,0E0,0E0,0E0,0E0,0E0,0E0,0E0,0E0,0E0,0E0,0E0,0E0,0E0,0E0],"parents":[2147483647,0,0,1,1,2,2,3,3,4,4,5,5,6,6,7,7,8,8,9,9,11,11,12,12,13,13,14,14],"right_children":[2,4,6,8,10,12,14,16,18,20,-1,22,24,26,28,-1,-1,-1,-1,-1,-1,-1,-1,-1,-1,-1,-1,-1,-1],"split_conditions":[1E0,1.06E1,4E-1,1.04E1,6E-1,3.4E0,2.4E0,1.02E1,8E-1,1.08E1,5.4192126E-1,1.2E0,6.4E0,1.2E0,7.8E0,5.226012E-2,4.4065768E-1,3.4496385E-1,-9.1789323E-1,2.5432894E-1,-2.0800705E-1,3.8883876E-2,-2.5369972E-1,-8.970436E-2,-7.0415845E-5,-4.686291E-1,3.640566E-2,-2.177026E-2,1.0374758E-2],"split_indices":[0,1,1,1,0,0,1,1,0,1,0,0,0,0,1,0,0,0,0,0,0,0,0,0,0,0,0,0,0],"split_type":[0,0,0,0,0,0,0,0,0,0,0,0,0,0,0,0,0,0,0,0,0,0,0,0,0,0,0,0,0],"sum_hessian":[2.332E3,1.66E2,2.166E3,1.61E2,5E0,4.4E1,2.122E3,1.59E2,2E0,2E0,3E0,1.1E1,3.3E1,3.99E2,1.723E3,1.55E2,4E0,1E0,1E0,1E0,1E0,1E0,1E1,1.2E1,2.1E1,7E0,3.92E2,1.081E3,6.42E2],"tree_param":{"num_deleted":"0","num_feature":"2","num_nodes":"29","size_leaf_vector":"1"}},{"base_weights":[4.771892E-3,9.410669E-1,-2.8461637E-2,1.8843324E0,-5.3271675E-1,-5.4916695E-2,6.729444E-1,-1.05546E0,3.781383E0,-2.7384567E-1,-2.2822062E-2,2.1658662E-1,-1.3682254E-1,6.221975E-1,2.3181294E-1,2.0500408E-2,-6.148567E-1,9.1377175E-1,2.3446076E-1,1.21199034E-1,-9.47505E-2,9.217251E-2,-2.4269162E-2,-9.6720986E-2,-9.443373E-3,-2.7074262E-1,5.1833212E-2],"categories":[],"categories_nodes":[],"categories_segments":[],"categories_sizes":[],"default_left":[0,0,0,0,0,0,0,0,0,0,0,0,0,0,0,0,0,0,0,0,0,0,0,0,0,0,0],"id":51,"left_children":[1,3,5,7,9,11,13,15,17,-1,19,21,23,-1,25,-1,-1,-1,-1,-1,-1,-1,-1,-1,-1,-1,-1],"loss_changes":[7.262132E1,1.1221738E2,4.1861588E1,2.772609E2,3.5927746E1,4.8352173E1,1.9928154E2,1.2965405E2,2.0945108E2,0E0,3.1977236E1,1.6344649E2,5.8691193E1,0E0,6.624878E1,0E0,0E0,0E0,0E0,0E0,0E0,0E0,0E0,0E0,0E0,0E0,0E0],"parents":[2147483647,0,0,1,1,2,2,3,3,4,4,5,5,6,6,7,7,8,8,10,10,11,11,12,12,14,14],"right_children":[2,4,6,8,10,12,14,16,18,-1,20,22,24,-1,26,-1,-1,-1,-1,-1,-1,-1,-1,-1,-1,-1,-1],"split_conditions":[6E-1,6.8E0,1.06E1,2.6E0,7.6E0,2.6E0,1.2E0,2.2E0,3.2E0,-2.7384567E-1,8.8E0,4.6E0,3E0,6.221975E-1,2E0,2.0500408E-2,-6.148567E-1,9.1377175E-1,2.3446076E-1,1.21199034E-1,-9.47505E-2,9.217251E-2,-2.4269162E-2,-9.6720986E-2,-9.443373E-3,-2.7074262E-1,5.1833212E-2],"split_indices":[0,1,1,1,1,1,0,1,1,0,1,0,1,0,0,0,0,0,0,0,0,0,0,0,0,0,0],"split_type":[0,0,0,0,0,0,0,0,0,0,0,0,0,0,0,0,0,0,0,0,0,0,0,0,0,0,0],"sum_hessian":[2.332E3,7.9E1,2.253E3,4.8E1,3.1E1,2.172E3,8.1E1,1.9E1,2.9E1,5E0,2.6E1,5.03E2,1.669E3,5E0,7.6E1,1.6E1,3E0,5E0,2.4E1,1.1E1,1.5E1,1.98E2,3.05E2,8E1,1.589E3,6E0,7E1],"tree_param":{"num_deleted":"0","num_feature":"2","num_nodes":"27","size_leaf_vector":"1"}},{"base_weights":[4.582741E-3,8.5079086E-1,-2.54533E-2,1.7072002E0,-4.8717308E-1,-6.080197E-2,4.2539746E-1,-9.796322E-1,3.4415152E0,-1.0105069E0,1.5262343E0,1.2760174E-1,-1.8003273E-1,3.6712086E0,9.798035E-2,1.857098E-2,-5.6874275E-1,8.37624E-1,2.1195208E-1,-1.5946822E-2,-4.5529756E-1,2.4235027E-1,-1.9286881E-1,1.0202175E-1,-3.6534087E-3,-3.903979E-2,6.4691785E-3,2.4580804E-1,4.425436E-1,-2.607022E-1,2.6873413E-2],"categories":[],"categories_nodes":[],"categories_segments":[],"categories_sizes":[],"default_left":[0,0,0,0,0,0,0,0,0,0,0,0,0,0,0,0,0,0,0,0,0,0,0,0,0,0,0,0,0,0,0],"id":52,"left_children":[1,3,5,7,9,11,13,15,17,19,21,23,25,27,29,-1,-1,-1,-1,-1,-1,-1,-1,-1,-1,-1,-1,-1,-1,-1,-1],"loss_changes":[5.9318916E1,9.249928E1,3.5947803E1,2.3170229E2,3.5260162E1,4.6994183E1,1.7392868E2,1.10780045E2,1.7795673E2,7.7658165E1,2.6374126E1,1.18857056E2,6.5973076E1,2.8465424E0,6.998399E1,0E0,0E0,0E0,0E0,0E0,0E0,